0.0044013000000000003509
0.0044834000000000002323
0.0045402000000000003119
0.0046372999999999995821
0.0045916999999999997747
0.0046297999999999998877
0.0045611999999999996297
0.0046420999999999996988
0.0047583000000000000296
0.0046880999999999997327
0.0076178000000000000921
0
0.0048879999999999999838
0.0050011999999999999164
0.0050263000000000000386
0.0050143000000000001806
0.0050007999999999996898
0.0050112000000000003763
0.0049340000000000000177
0.0049708000000000000448
0.0050436999999999999195
0.0049624999999999998973
0.00086430000000000002918
0.0010825999999999999686
0.0010518000000000000873
0.0012700999999999999183
0.0013396000000000000355
0.0014687999999999999234
0.0012516999999999999047
0.0015525000000000000605
0.0015270999999999999852
0.0016065999999999999118
0.0024567000000000000295
0
0.001439299999999999911
0.0015698000000000001015
0.001508599999999999915
0.0017285000000000000017
0.0017589999999999999299
0.0019748999999999999194
0.0019777000000000002043
0.0022601000000000001297
0.0023394000000000001599
0.0023275000000000001417
0.025083999999999998659
0.025053599999999998788
0.025171200000000001212
0.025078099999999999004
0.025079100000000000004
0.025013099999999999917
0.025373099999999999127
0.02542509999999999909
0.025482899999999999302
0.025606400000000001382
0.028140899999999999942
0
0.02611940000000000095
0.026153900000000000758
0.026384700000000000514
0.026375400000000000234
0.026790299999999999531
0.027038900000000001128
0.026839399999999999369
0.026914799999999999142
0.026993799999999998351
0.027221300000000000358
0.017911500000000000338
0.017868399999999999561
0.01775169999999999873
0.017758099999999998886
0.017772400000000000697
0.017774399999999999228
0.017641099999999999837
0.017703500000000000486
0.017613799999999998902
0.01764680000000000068
0.015431000000000000272
0
0.017643900000000000555
0.017604600000000001497
0.017450199999999999045
0.017428800000000001236
0.01748430000000000123
0.017559299999999999908
0.017467799999999998606
0.017432400000000000673
0.017416999999999998455
0.017368800000000000211
0.030501899999999998458
0.030389200000000001628
0.030582000000000001544
0.03067040000000000044
0.030888399999999999884
0.03080700000000000105
0.031100900000000000767
0.031084600000000000425
0.030990000000000000185
0.030956799999999999595
0.029976200000000001455
0
0.031238599999999998313
0.031313699999999999868
0.031420099999999999418
0.031382500000000000673
0.031511299999999999033
0.03156370000000000009
0.031745599999999998819
0.03166759999999999714
0.031822999999999997123
0.031969999999999998419
-0.0036421999999999999514
-0.003712200000000000135
-0.003776499999999999909
-0.0038890000000000000957
-0.0039475999999999998938
-0.0040607000000000004203
-0.0040578999999999997017
-0.0041513000000000001288
-0.0041616999999999999479
-0.0040562000000000002567
-0.0048856999999999997653
0
-0.0040879000000000002141
-0.0041149000000000003283
-0.004075600000000000403
-0.0042820000000000002158
-0.0044612000000000002348
-0.0045945999999999998994
-0.0045643999999999997075
-0.0045982999999999996099
-0.0047188999999999998308
-0.004754300000000000366
-0.0003687000000000000173
-0.00017860000000000000441
-0.0003200999999999999744
-0.00022829999999999999274
-0.00035950000000000001052
-0.00017780000000000001207
-0.00046949999999999997378
-0.00049980000000000000555
-0.00044729999999999997626
-0.00050819999999999999288
0.0019259999999999999776
0
-0.00060769999999999997197
-0.00072110000000000001787
-0.0008147999999999999644
-0.0006907999999999999861
-0.00094530000000000004648
-0.00089139999999999998317
-0.00083770000000000003314
-0.00075909999999999996576
-0.00098999999999999999459
-0.0010218000000000000086
-0.017352699999999998681
-0.017297599999999999781
-0.017317900000000000654
-0.017279300000000000909
-0.017326000000000001122
-0.017294600000000000251
-0.017350399999999998463
-0.017266600000000000004
-0.017119399999999999895
-0.017212499999999998634
-0.015050199999999999689
0
-0.016982600000000000473
-0.017036099999999998467
-0.01693739999999999829
-0.016883999999999999703
-0.016848800000000000582
-0.016959899999999999975
-0.016834399999999999364
-0.016828499999999999709
-0.016781299999999998995
-0.01681689999999999921
-0.023539299999999999113
-0.023519700000000001022
-0.023568599999999998579
-0.023610200000000001325
-0.023619999999999998636
-0.023669300000000000755
-0.023714499999999999469
-0.023760799999999998589
-0.023818099999999998301
-0.023865700000000000108
-0.0227051999999999983
0
-0.023749099999999998684
-0.023830299999999998706
-0.023893600000000000949
-0.02395219999999999988
-0.023950499999999999567
-0.02387320000000000067
-0.023971599999999999159
-0.023937500000000000444
-0.024008200000000000374
-0.023914399999999998853
-0.027244299999999999073
-0.02721569999999999892
-0.027238300000000000012
-0.027147799999999999709
-0.02717419999999999905
-0.02713470000000000118
-0.02725620000000000126
-0.027194400000000000517
-0.027121699999999998587
-0.027244799999999999573
-0.027261099999999999915
0
-0.027208099999999998952
-0.02718879999999999908
-0.027194699999999998735
-0.027129699999999999649
-0.027086300000000000654
-0.027117200000000001026
-0.027192999999999998423
-0.027203999999999999015
-0.027218400000000000233
-0.027314000000000001472
-0.01868500000000000022
-0.018737099999999999589
-0.018547299999999999204
-0.018684300000000000908
-0.018633199999999999069
-0.018632499999999999757
-0.01838839999999999919
-0.018422500000000001374
-0.01848199999999999843
-0.018415299999999999031
-0.015904299999999999687
0
-0.01844399999999999859
-0.018362400000000000944
-0.018263200000000000267
-0.018305200000000000637
-0.018301999999999998825
-0.018196600000000000275
-0.018284200000000000452
-0.018140400000000000968
-0.01813609999999999875
-0.018030399999999998512
-0.023061499999999998667
-0.023106499999999998568
-0.023147799999999999626
-0.023146099999999999314
-0.023235300000000000398
-0.023307000000000001327
-0.023281599999999999517
-0.023383399999999998631
-0.023383500000000001506
-0.023481999999999999401
-0.021715999999999999193
0
-0.023548400000000000581
-0.023661100000000000881
-0.023629799999999999416
-0.023651200000000000695
-0.023745300000000000434
-0.02391799999999999829
-0.023901700000000001417
-0.023927500000000000852
-0.023993400000000001532
-0.024013699999999998935
-0.0023091000000000001281
-0.0024482000000000002024
-0.0024764000000000001289
-0.0024390000000000001956
-0.0023890000000000000645
-0.0024632999999999998647
-0.0026281999999999998072
-0.0026345999999999999627
-0.0028165999999999998329
-0.0028051999999999998811
-0.0033982000000000000921
0
-0.0029892000000000000168
-0.0028987999999999999878
-0.002997999999999999797
-0.0030525999999999999315
-0.0031825999999999998388
-0.0031762000000000001169
-0.0032808999999999997887
-0.0034167999999999997852
-0.0034036999999999999547
-0.0035815000000000000481
0.03950649999999999995
0.039085599999999998122
0.039072200000000001374
0.038584199999999999053
0.03850930000000000325
0.038029699999999999616
0.038584000000000000241
0.038028699999999998616
0.037717300000000002214
0.037644900000000001972
0.037201299999999999646
0
0.037673400000000002719
0.03728320000000000245
0.037240099999999998204
0.036884899999999998244
0.037093599999999997407
0.037090999999999998971
0.036935599999999998988
0.036747299999999996634
0.036580200000000000216
0.036476300000000003165
0.010196099999999999608
0.010327100000000000515
0.010485899999999999388
0.010665400000000000227
0.01087149999999999922
0.011082500000000000337
0.010994300000000000253
0.011080500000000000071
0.011354899999999999369
0.011500500000000000306
0.011026400000000000437
0
0.011726800000000000765
0.011918099999999999181
0.012018199999999999716
0.012053400000000000572
0.011834600000000000675
0.01173749999999999967
0.01211270000000000055
0.012320100000000000495
0.012307300000000000184
0.012533000000000000737
0.0014613000000000000121
0.0017026000000000000769
0.0016348000000000000552
0.0019070999999999998977
0.0018331000000000000506
0.0020828000000000001027
0.0019471000000000000026
0.0020996000000000000774
0.0023305000000000001062
0.0023032000000000000389
0.0048231000000000003036
0
0.002542899999999999848
0.0025615999999999998146
0.0026177000000000001483
0.0027634000000000000577
0.0026345999999999999627
0.0025105000000000001446
0.0028470000000000001382
0.0028289999999999999175
0.0028446999999999999197
0.0026984999999999999439
0.029781599999999998352
0.029889399999999999996
0.029799300000000000788
0.029988500000000001267
0.029921400000000000774
0.030067300000000001664
0.0300825000000000016
0.030149300000000000405
0.030293799999999999201
0.030214399999999998897
0.03600400000000000128
0
0.030544499999999998735
0.030445699999999999152
0.030530100000000000987
0.030673300000000000565
0.030628699999999998288
0.03042310000000000153
0.030464399999999999119
0.030358900000000001163
0.03040249999999999897
0.030293199999999999295
0.031433299999999997354
0.031496499999999996722
0.031401100000000001233
0.031441400000000001291
0.031417800000000002669
0.031382100000000003048
0.031519600000000001783
0.031421900000000002606
0.031371499999999996611
0.031421200000000003294
0.031446500000000002228
0
0.031371499999999996611
0.031219199999999999035
0.031148300000000000293
0.031079900000000000582
0.031140799999999999731
0.03116949999999999929
0.031234100000000000752
0.031325999999999999679
0.031366699999999997361
0.031389300000000001922
0.0068079000000000004095
0.0067626999999999999613
0.0066915999999999998052
0.0066533000000000000126
0.0066810000000000003065
0.0066411999999999998812
0.0065833000000000002627
0.0064853000000000002659
0.0064635999999999999011
0.0064532000000000000819
0.0076280999999999996378
0
0.0064771000000000003918
0.0065878000000000004263
0.0066452999999999998182
0.0065887999999999996917
0.0063514000000000001012
0.0061463000000000003742
0.0062940000000000001154
0.006213800000000000226
0.0060766999999999999835
0.006008499999999999952
0.039869200000000000472
0.039877099999999998658
0.039630300000000000249
0.039546100000000000696
0.039478100000000002079
0.039311199999999997534
0.039298399999999997223
0.039150999999999998302
0.039176000000000002488
0.039213800000000000046
0.036366900000000000615
0
0.039402800000000001712
0.039073799999999998811
0.038968700000000001948
0.038805600000000002592
0.038871500000000003272
0.038827399999999998026
0.03877119999999999872
0.038563600000000003432
0.038442200000000002758
0.038454000000000002069
0.022019099999999999784
0.021995399999999998286
0.022057199999999999029
0.022180800000000000516
0.022177800000000000985
0.02231930000000000025
0.022094900000000000651
0.022172500000000001236
0.022121999999999999303
0.022065700000000000591
0.023215699999999998837
0
0.021611600000000001642
0.02183329999999999993
0.021790799999999999059
0.021924499999999999544
0.021801999999999998464
0.0218176999999999989
0.021824799999999998368
0.021901899999999998453
0.021993800000000000849
0.021983800000000001257
0.021289200000000001178
0.021361999999999999045
0.021346199999999999203
0.021436299999999998411
0.021478000000000000563
0.021504599999999998716
0.021577999999999999958
0.021561199999999999116
0.021621600000000001235
0.021747200000000001252
0.020757899999999999269
0
0.021977099999999999413
0.022036000000000000032
0.022058100000000000623
0.022086899999999999589
0.022058000000000001217
0.022057699999999999529
0.02221439999999999873
0.02223050000000000026
0.022194700000000001233
0.02213239999999999999
-0.018342899999999998789
-0.018191599999999998744
-0.018333900000000000197
-0.018286500000000000671
-0.018310199999999998699
-0.018191300000000000525
-0.018265400000000001079
-0.018271699999999998359
-0.018109799999999998815
-0.018107200000000000378
-0.016409099999999999381
0
-0.018031200000000000699
-0.018151199999999999279
-0.01813659999999999925
-0.018083399999999999475
-0.018084400000000000475
-0.018095099999999999379
-0.018054400000000001697
-0.018081799999999998568
-0.018117999999999998689
-0.018136300000000001031
-0.0097917000000000004034
-0.0098514999999999991465
-0.0098619999999999992391
-0.0098096999999999993231
-0.0098306999999999995082
-0.0099010999999999994847
-0.0099094999999999999057
-0.0099050000000000006095
-0.0099094999999999999057
-0.010048100000000000781
-0.011750200000000000575
0
-0.010060299999999999451
-0.010046299999999999328
-0.010084499999999999714
-0.010083899999999999808
-0.010022400000000000753
-0.0099288999999999991847
-0.0099731000000000003675
-0.010014099999999999738
-0.01004309999999999925
-0.010015899999999999456
-0.024358100000000000585
-0.024316100000000000214
-0.02427469999999999975
-0.024272100000000001313
-0.024226199999999999818
-0.024205199999999999633
-0.024191500000000001197
-0.024155800000000001576
-0.024095100000000001239
-0.024016200000000001435
-0.02473380000000000023
0
-0.023951299999999998286
-0.023898599999999999011
-0.02385810000000000014
-0.023815499999999999864
-0.02378490000000000118
-0.023761600000000000776
-0.023659499999999999975
-0.023612600000000000949
-0.023636600000000000665
-0.023582999999999999796
-0.023059199999999998448
-0.02308380000000000154
-0.023140999999999998377
-0.023166900000000000687
-0.023203600000000001308
-0.023166900000000000687
-0.023293000000000001204
-0.023267099999999998894
-0.023228300000000000336
-0.023285799999999998861
-0.022288700000000001566
0
-0.02337310000000000082
-0.023336499999999999605
-0.023372400000000001508
-0.023348600000000000604
-0.023436900000000000094
-0.023445099999999999968
-0.023509100000000001524
-0.023504000000000000586
-0.023535299999999998583
-0.023465400000000000841
-0.0057812999999999996337
-0.005851099999999999704
-0.0060008999999999999841
-0.0059794999999999995724
-0.005996500000000000094
-0.0060079000000000000459
-0.0060688000000000000625
-0.0060531999999999999001
-0.0061472000000000002334
-0.0062649999999999997358
-0.010290600000000000441
0
-0.0063160999999999998394
-0.0064304000000000001783
-0.0065142999999999997782
-0.0064539999999999996677
-0.0063305000000000001895
-0.0062950999999999996543
-0.0063394999999999996493
-0.0065231000000000004257
-0.0064936000000000004134
-0.0066293000000000002966
-0.016950099999999999195
-0.016837600000000001177
-0.01676760000000000056
-0.016788199999999999651
-0.016811500000000000055
-0.016747999999999998999
-0.016489199999999998997
-0.016602499999999999203
-0.016508700000000001151
-0.016336699999999999139
-0.017572299999999999032
0
-0.015945700000000000152
-0.01604310000000000111
-0.015908999999999999531
-0.015859999999999999098
-0.015709799999999999459
-0.015558799999999999367
-0.015457000000000000253
-0.015285500000000000476
-0.015241899999999999199
-0.015061500000000000235
-0.016351700000000000262
-0.016324600000000001609
-0.016460599999999998844
-0.016444000000000000283
-0.016494700000000001028
-0.016478400000000000686
-0.016625500000000001388
-0.016664299999999999946
-0.016716999999999999221
-0.016796599999999998337
-0.015888499999999999845
0
-0.016857600000000000362
-0.01688709999999999864
-0.016981599999999999473
-0.016959100000000001257
-0.016942399999999999821
-0.016979700000000000348
-0.017126399999999999957
-0.017101399999999999241
-0.017173999999999998295
-0.01731850000000000056
-0.0023178999999999999083
-0.0025389000000000001844
-0.0025928999999999999791
-0.0028262000000000000663
-0.0029190000000000001536
-0.0030255999999999998173
-0.0030003999999999998553
-0.003113599999999999788
-0.0033359000000000001498
-0.0034061999999999998529
-0.0045167999999999996347
0
-0.0035068999999999998611
-0.0036313999999999999058
-0.0036315000000000001792
-0.0036911999999999999499
-0.0037918999999999999581
-0.0039255000000000001698
-0.0039325999999999996376
-0.0040740999999999997702
-0.0040569999999999998425
-0.0041745999999999996652
0.012422600000000000656
0.012525200000000000222
0.012627199999999999883
0.012792299999999999505
0.012871399999999999855
0.013083700000000000191
0.012832700000000000704
0.012879399999999999182
0.013088199999999999487
0.013059599999999999334
0.012258299999999999752
0
0.013064199999999999771
0.013100000000000000533
0.013076400000000000176
0.013032200000000000728
0.012801800000000000332
0.012657500000000000348
0.012866100000000000106
0.013130299999999999264
0.013012599999999999167
0.013160800000000000276
0.0027634999999999998975
0.0028841000000000001184
0.0025936999999999999986
0.0026792999999999999108
0.0024794000000000000934
0.0026722999999999998491
0.0025384000000000001181
0.0025685000000000000366
0.0027169999999999997972
0.0026435000000000000164
0.0055799999999999998906
0
0.0027133000000000000868
0.0023825999999999999089
0.0024130000000000002142
0.0024731000000000002113
0.0024153999999999998388
0.0022160000000000000878
0.0023392999999999998864
0.0021705000000000001202
0.0021107000000000000761
0.0020000999999999998814
-0.0071389000000000001067
-0.0071412000000000003253
-0.0071342999999999996696
-0.0071567999999999996202
-0.0071970000000000002721
-0.0073096999999999997047
-0.0074082999999999996077
-0.0076216000000000000761
-0.0075536999999999999977
-0.007597300000000000407
-0.0070971000000000002833
0
-0.0075598999999999996063
-0.0077146000000000002766
-0.0077495999999999997179
-0.0079257000000000008
-0.0082100000000000002837
-0.0083823000000000005144
-0.0082842000000000002441
-0.0083811000000000007021
-0.0086280999999999996586
-0.0087232999999999998042
-0.0063644000000000000919
-0.0063674999999999998962
-0.0063760999999999999968
-0.0063949999999999996431
-0.006514200000000000372
-0.0065414000000000001658
-0.0065147000000000000047
-0.0066226999999999995941
-0.0066544000000000004189
-0.0068136999999999997915
-0.0052445000000000000298
0
-0.0070727000000000003407
-0.0072522000000000003128
-0.007258599999999999601
-0.0073121000000000001967
-0.0073994000000000004214
-0.0075129000000000003071
-0.007532800000000000086
-0.007486500000000000099
-0.007504199999999999933
-0.0075046000000000001595
0.025733400000000000024
0.025669299999999999062
0.025789400000000000518
0.02580419999999999936
0.025910300000000000692
0.025986700000000001465
0.026171500000000000319
0.026334400000000000863
0.026340999999999999831
0.026252199999999999841
0.024034099999999999214
0
0.026548599999999998589
0.026752700000000000785
0.026698599999999999416
0.02688540000000000027
0.027008999999999998287
0.027087599999999999872
0.026964700000000001168
0.026847599999999999243
0.026988200000000000384
0.026876000000000000584
-0.011054100000000000731
-0.011101099999999999163
-0.011065300000000000136
-0.011051399999999999418
-0.011009400000000000783
-0.011054700000000000637
-0.011112000000000000349
-0.011182299999999999185
-0.011183399999999999591
-0.011263900000000000301
-0.012432199999999999154
0
-0.011201600000000000792
-0.011243700000000000569
-0.011255899999999999239
-0.011338900000000000715
-0.011414799999999999253
-0.011541700000000000223
-0.011448299999999999796
-0.011532199999999999396
-0.011567600000000000798
-0.011546600000000000613
-0.010445400000000000518
-0.010378699999999999384
-0.010482800000000000451
-0.010369200000000000292
-0.010533499999999999461
-0.01045540000000000011
-0.01072320000000000044
-0.010777699999999999433
-0.010793999999999999775
-0.010929599999999999385
-0.010625799999999999482
0
-0.011109400000000000178
-0.011231800000000000117
-0.011336900000000000449
-0.011287800000000000611
-0.011450200000000000655
-0.011520100000000000132
-0.011469599999999999934
-0.011514099999999999335
-0.01166189999999999935
-0.011656899999999999554
0.026953600000000001169
0.026699400000000001604
0.026805800000000001154
0.026535300000000001247
0.026532300000000001716
0.026239100000000001311
0.026486900000000000721
0.026255099999999999966
0.026192900000000001598
0.026147199999999998915
0.022772600000000000481
0
0.02615839999999999832
0.026081699999999999329
0.026142200000000000853
0.025913800000000000723
0.025926000000000001128
0.025763799999999999896
0.025711299999999999433
0.025506500000000001394
0.025511200000000001237
0.025423299999999999371
0.0015211000000000000562
0.0016551000000000000607
0.0017194000000000000516
0.0018646999999999999513
0.0018936000000000000575
0.0020381000000000001546
0.0019250000000000000618
0.0019967999999999999639
0.0021678000000000001088
0.0021914999999999998717
0.003380900000000000051
0
0.0021235999999999997934
0.0022666000000000001251
0.0023197000000000000605
0.0024640999999999998842
0.0022791999999999998892
0.0022339999999999998748
0.0024326999999999998799
0.0025224000000000001628
0.0024786999999999999138
0.0024624999999999998453
-0.013871400000000000743
-0.013664600000000000704
-0.013762599999999999834
-0.013685900000000000842
-0.013729299999999999837
-0.013589000000000000384
-0.013693600000000000216
-0.013658000000000000002
-0.013571899999999999589
-0.013603499999999999273
-0.012422900000000000609
0
-0.013451899999999999274
-0.013615500000000000866
-0.013595199999999999993
-0.013525399999999999923
-0.013562499999999999903
-0.013534199999999999703
-0.01356270000000000045
-0.013565199999999999481
-0.013590299999999999603
-0.013496100000000000457
-0.018212200000000001304
-0.018231399999999998301
-0.018132900000000000407
-0.018183499999999998276
-0.018189299999999998525
-0.018221199999999999897
-0.018184200000000001057
-0.018242200000000000082
-0.018220400000000001178
-0.018209699999999998804
-0.018669499999999998596
0
-0.018370500000000001412
-0.01831620000000000123
-0.018263200000000000267
-0.018367899999999999505
-0.018424499999999999905
-0.018475899999999999962
-0.018478499999999998399
-0.018387799999999999284
-0.018462699999999998557
-0.018391899999999999221
-0.016803700000000001274
-0.016812199999999999367
-0.016863599999999999424
-0.016820999999999999147
-0.016885100000000000109
-0.01679929999999999965
-0.016906100000000000294
-0.01677009999999999959
-0.016729399999999998438
-0.016797200000000001713
-0.017087800000000000211
0
-0.01673540000000000097
-0.016749099999999999405
-0.016773599999999999621
-0.016664000000000001728
-0.016615800000000000014
-0.016582400000000000612
-0.016579699999999999299
-0.01665389999999999926
-0.016577399999999999081
-0.016532700000000000867
-0.021396800000000000541
-0.021367799999999999294
-0.021175400000000000472
-0.021321599999999999581
-0.02133770000000000111
-0.02140790000000000054
-0.021319799999999999862
-0.021375999999999999168
-0.021357799999999999702
-0.021277199999999999586
-0.021628399999999999015
0
-0.021316100000000001019
-0.021285800000000000554
-0.021220099999999998686
-0.02134250000000000036
-0.021305399999999998645
-0.021314199999999998425
-0.021405400000000001509
-0.021330200000000000549
-0.021313800000000000801
-0.021265599999999999087
-0.0083800000000000002959
-0.008517099999999999671
-0.0084136999999999996513
-0.0084422999999999998044
-0.0084320999999999996649
-0.0084761999999999997069
-0.0085938999999999998031
-0.0085433000000000001994
-0.0086356000000000002204
-0.0086882999999999994956
-0.011069499999999999479
0
-0.0090100000000000006473
-0.0088216000000000006215
-0.0088707999999999998658
-0.0088605999999999997263
-0.0090457000000000002682
-0.0091199000000000002286
-0.0091515999999999993186
-0.0091231999999999997125
-0.009117500000000000604
-0.0092557000000000003853
-0.0040135999999999999802
-0.0039582000000000002599
-0.0040803000000000002462
-0.0039230999999999996777
-0.0039382000000000002074
-0.003782499999999999838
-0.0039472999999999999407
-0.0038581999999999999976
-0.0038557000000000000994
-0.0038525000000000000216
-0.0039034999999999998518
0
-0.0037114999999999999554
-0.0036803999999999999042
-0.0037271999999999999575
-0.003537499999999999846
-0.0034093999999999999306
-0.0033286999999999999748
-0.0033400000000000000869
-0.0033121999999999999532
-0.0031708000000000000941
-0.0032057999999999999691
0.0034775999999999999621
0.0034643999999999998581
0.003739300000000000089
0.0037239999999999998798
0.0037157000000000001659
0.0038522999999999999084
0.0038560999999999998923
0.0041257000000000003739
0.0040562000000000002567
0.0039930000000000000215
0.0077327000000000003371
0
0.0037661999999999999297
0.0041980999999999997485
0.0042799999999999999503
0.0043606000000000000663
0.0044672000000000001638
0.0046115000000000001476
0.004322699999999999633
0.0046258000000000002241
0.0047453000000000000388
0.0046601999999999997593
0.001264499999999999999
0.0011434999999999999852
0.001136000000000000074
0.001182600000000000014
0.0012293000000000000108
0.0011708000000000000525
0.0010721000000000000928
0.0011849000000000000157
0.0012404000000000000095
0.0010702999999999999407
-0.00070520000000000001086
0
0.00097470000000000000216
0.00098529999999999993456
0.00095540000000000002093
0.00094970000000000004501
0.00099419999999999998826
0.00094099999999999999617
0.00094180000000000001562
0.0009255999999999999471
0.0010383000000000000302
0.001051599999999999974
-0.014616000000000000519
-0.014505900000000000391
-0.014498399999999999829
-0.014369899999999999687
-0.014442899999999999835
-0.01429159999999999979
-0.01427840000000000012
-0.014113399999999999904
-0.013912199999999999567
-0.013929000000000000409
-0.01177409999999999915
0
-0.013726000000000000353
-0.013742499999999999508
-0.013665699999999999376
-0.013622000000000000428
-0.013566200000000000481
-0.01353880000000000014
-0.013413100000000000717
-0.013359400000000000441
-0.01340320000000000053
-0.01339880000000000064
-0.028696200000000001568
-0.028735500000000000625
-0.028701500000000001317
-0.028722500000000001502
-0.028734099999999998531
-0.028766500000000000403
-0.028858700000000001018
-0.028860699999999999549
-0.028782999999999999557
-0.028866499999999999798
-0.029144900000000001361
0
-0.028930799999999999572
-0.028997200000000000752
-0.029054900000000001559
-0.029102900000000000991
-0.029209200000000001135
-0.029335699999999999277
-0.029462599999999998512
-0.029546400000000000441
-0.029637899999999998274
-0.029708899999999999891
-0.027338000000000001188
-0.027257400000000001072
-0.027217700000000000921
-0.027209299999999998765
-0.027206000000000001016
-0.027228300000000000419
-0.027174400000000001332
-0.027162200000000000927
-0.027142400000000000554
-0.027107099999999998557
-0.028158400000000000096
0
-0.027154199999999999865
-0.027160500000000000614
-0.027155499999999999083
-0.027109999999999998682
-0.026939600000000001045
-0.02686200000000000046
-0.026817699999999999871
-0.026681300000000001543
-0.026550100000000000089
-0.026522600000000000342
-0.0084828999999999998155
-0.0085742000000000005711
-0.0086038999999999993956
-0.0087212999999999995387
-0.0087224999999999993511
-0.008758699999999999472
-0.0086505000000000002031
-0.0086076999999999993796
-0.0086072000000000006142
-0.0085646999999999997438
-0.0089309000000000002967
0
-0.0084905999999999991895
-0.0084756999999999992068
-0.008485400000000000581
-0.0084872000000000002995
-0.0083455999999999998934
-0.0082760999999999997762
-0.0084402000000000001328
-0.0085614000000000002599
-0.0085625000000000006661
-0.0086046999999999998487
0.0069214000000000002952
0.0068016999999999999335
0.0068504999999999998186
0.006779499999999999936
0.0068278999999999995946
0.0068079000000000004095
0.0066839999999999998373
0.0066427999999999999201
0.0066436999999999997793
0.0065532999999999997504
0.0043801999999999998922
0
0.0064023999999999999314
0.0064561999999999996128
0.0063467999999999996641
0.0061948000000000003062
0.0060121999999999996625
0.0058713000000000003034
0.0058970999999999997379
0.0058742999999999998342
0.0058405999999999996114
0.0057917999999999997263
-0.010838800000000000864
-0.010727000000000000424
-0.010708900000000000363
-0.010693199999999999927
-0.010763899999999999857
-0.010737699999999999328
-0.010663300000000000556
-0.010832100000000000756
-0.010911999999999999825
-0.010890499999999999139
-0.010549899999999999209
0
-0.010902600000000000138
-0.011065699999999999495
-0.010999099999999999502
-0.01098859999999999941
-0.011010799999999999407
-0.011049200000000000341
-0.01095740000000000082
-0.011001199999999999174
-0.010999000000000000096
-0.010977900000000000505
-0.02850520000000000137
-0.028432900000000000534
-0.028521600000000001118
-0.028549800000000000177
-0.028612399999999999639
-0.028556700000000000833
-0.02866420000000000079
-0.028652799999999999103
-0.028650800000000000572
-0.028614199999999999358
-0.027316300000000001691
0
-0.028627900000000001263
-0.028666299999999998727
-0.028654999999999999916
-0.028679400000000000726
-0.02873739999999999975
-0.028779599999999998933
-0.028796399999999999775
-0.028780699999999999339
-0.02887199999999999836
-0.028925200000000001604
0.0096757000000000006196
0.0094918999999999992961
0.0094312000000000006938
0.0092887000000000004285
0.0092884999999999998815
0.009141800000000000273
0.0091850999999999998619
0.0091582000000000000212
0.0090872000000000001385
0.0090694000000000000311
0.0079351999999999998925
0
0.0089782999999999998225
0.0089295999999999993435
0.0088950999999999995349
0.0087921000000000006092
0.0088559999999999992892
0.0088801999999999995522
0.0087738999999999994078
0.0086878000000000007302
0.0087011999999999992128
0.0085649000000000002908
0.00075630000000000000612
0.00071179999999999995445
0.00076090000000000000951
0.00078140000000000001991
0.00085349999999999998351
0.00083589999999999998938
0.00086249999999999998543
0.00079409999999999994914
0.00082919999999999998916
0.0007602000000000000467
0.00055570000000000000905
0
0.00090079999999999999481
0.00086229999999999998057
0.00088730000000000004614
0.00087339999999999997932
0.00078810000000000002014
0.00070960000000000000939
0.00085639999999999999979
0.00080460000000000004173
0.00073189999999999995513
0.00078109999999999995841
0.013637899999999999676
0.013770499999999999755
0.013630700000000000802
0.013794499999999999471
0.013825600000000000389
0.013997799999999999479
0.013775799999999999504
0.014061999999999999847
0.014051700000000000301
0.013930899999999999533
0.013433999999999999761
0
0.014004900000000000682
0.014087000000000000563
0.013978499999999999606
0.014175200000000000647
0.014338699999999999363
0.014508899999999999922
0.014331699999999999301
0.014351700000000000221
0.014497299999999999423
0.014426899999999999447
-0.0089262000000000004535
-0.0089840000000000006658
-0.008871399999999999772
-0.008903599999999999362
-0.0088401000000000000412
-0.0088784999999999992398
-0.0086128999999999997228
-0.0086403000000000000635
-0.008585900000000000476
-0.0085015999999999997822
-0.0099877999999999998032
0
-0.0083161999999999992872
-0.0083222000000000000836
-0.0082722000000000003861
-0.0083087000000000004601
-0.008158699999999999633
-0.0080829000000000005011
-0.0081089000000000004825
-0.0081098999999999997479
-0.0080377000000000000529
-0.0079518000000000001876
-0.00079849999999999994767
-0.00081450000000000001132
-0.00073539999999999998599
-0.00076009999999999999006
-0.00078790000000000001527
-0.0006987000000000000155
-0.00085490000000000001754
-0.0007274999999999999566
-0.0008547999999999999609
-0.00098149999999999995061
-0.0025430999999999999613
0
-0.0012872000000000000629
-0.001095700000000000016
-0.0012104999999999999875
-0.0011039000000000001069
-0.0011012999999999999352
-0.0010385999999999999833
-0.0011516000000000000195
-0.0011126000000000000473
-0.0010153000000000000132
-0.0011996999999999999418
0.0099621999999999991809
0.0099912000000000004279
0.009999199999999999755
0.010055400000000000796
0.010167600000000000596
0.010122100000000000194
0.010399999999999999523
0.010477900000000000061
0.010517699999999999619
0.010689399999999999943
0.0079929000000000006987
0
0.011112699999999999662
0.011017199999999999563
0.011071900000000000838
0.011098600000000000132
0.011410599999999999909
0.011635899999999999369
0.01157900000000000075
0.01150379999999999979
0.011664499999999999522
0.011710099999999999329
-0.0096112999999999997047
-0.009790000000000000091
-0.0097303000000000007541
-0.0098504999999999998811
-0.0098276000000000005713
-0.010087399999999999839
-0.010041899999999999438
-0.01019830000000000042
-0.010349300000000000513
-0.010431299999999999253
-0.012097999999999999379
0
-0.010429700000000000082
-0.010450100000000000361
-0.010483799999999999716
-0.010659800000000000525
-0.010703000000000000708
-0.010831399999999999709
-0.010847900000000000598
-0.011005499999999999658
-0.011034300000000000358
-0.01101740000000000011
0.024568500000000000061
0.024284799999999998749
0.024067000000000001586
0.02382439999999999905
0.023664899999999999131
0.023502100000000001462
0.023449199999999999905
0.023283000000000001611
0.0229866999999999988
0.022758699999999999763
0.02095709999999999934
0
0.022264699999999998381
0.022202199999999998326
0.021915500000000000952
0.021858400000000000052
0.0218732999999999983
0.02184360000000000121
0.021630199999999998733
0.021430600000000001037
0.021337800000000000517
0.021005800000000001554
0.038478999999999999315
0.038416300000000000447
0.038795799999999998342
0.038908600000000001518
0.039318199999999997596
0.039182399999999999174
0.039830600000000000727
0.040000899999999998957
0.040263399999999997803
0.040478300000000001779
0.03379830000000000334
0
0.041064000000000003276
0.04112480000000000302
0.041337100000000001621
0.041309800000000000686
0.041818599999999997441
0.042080100000000002225
0.042181799999999998463
0.042181000000000003214
0.042585600000000001231
0.043102300000000003111
0.0028481999999999999505
0.0028273999999999998786
0.0028335999999999999209
0.0029553000000000001143
0.0029407000000000000847
0.0030116999999999999674
0.0028593999999999997891
0.0030385999999999998081
0.003026299999999999997
0.0028154999999999998604
0.00062180000000000004365
0
0.0025869999999999998899
0.0027231999999999998395
0.0025858999999999999174
0.0026430999999999997899
0.0026150999999999999766
0.0026565000000000000072
0.0025942000000000000649
0.0024520000000000001864
0.0024659999999999998761
0.0022766000000000001513
-0.032114299999999998403
-0.032031999999999997975
-0.031973700000000000732
-0.031930600000000003424
-0.031961599999999999733
-0.031944199999999998985
-0.03194480000000000236
-0.031879999999999998617
-0.031719100000000000072
-0.03175589999999999663
-0.031341000000000000802
0
-0.031759900000000000631
-0.031808999999999996999
-0.031809400000000001563
-0.031802999999999997938
-0.031803900000000003001
-0.031837600000000000622
-0.031920499999999997487
-0.031978100000000002356
-0.031961599999999999733
-0.031940099999999999048
-0.015167599999999999832
-0.015174599999999999894
-0.015083299999999999139
-0.015046000000000000346
-0.015024100000000000302
-0.015071700000000000375
-0.014975900000000000323
-0.014907699999999999424
-0.01488590000000000052
-0.014879399999999999224
-0.01561479999999999986
0
-0.014847499999999999587
-0.014789200000000000609
-0.014793600000000000499
-0.014787099999999999203
-0.014660299999999999374
-0.014572500000000000384
-0.014559799999999999479
-0.014398799999999999794
-0.01430720000000000082
-0.014312099999999999475
-0.024464199999999998447
-0.024473100000000001103
-0.02452249999999999916
-0.024594799999999999995
-0.024595499999999999308
-0.024564400000000000124
-0.024737700000000001355
-0.024743000000000001104
-0.024785700000000000787
-0.024862999999999999684
-0.024464300000000001323
0
-0.024789100000000001411
-0.024776699999999998725
-0.024746100000000000041
-0.024792999999999999067
-0.024883800000000001057
-0.024952700000000001268
-0.024952200000000000768
-0.02501530000000000073
-0.025107999999999998375
-0.025100199999999999595
-0.00879560000000000064
-0.0088520999999999998992
-0.0088173000000000001375
-0.0087340999999999998499
-0.0087595999999999993313
-0.0087819999999999998758
-0.0088138999999999995127
-0.0086893000000000004956
-0.0086633000000000005142
-0.0088401999999999994473
-0.0082933999999999993835
0
-0.0086303999999999998771
-0.008641799999999999829
-0.0086674999999999998573
-0.008654500000000000734
-0.0085386000000000003562
-0.0084595000000000000057
-0.0085724000000000008526
-0.0085996000000000006463
-0.0085432000000000007933
-0.0086236999999999997685
0.0087121999999999998054
0.0087656999999999995338
0.0088527999999999992115
0.008895399999999999488
0.008872100000000000819
0.0089294000000000005313
0.0089490999999999997633
0.0088704000000000005066
0.0087957999999999994523
0.0087565999999999998005
0.010551700000000000662
0
0.0087338999999999993029
0.0087541000000000007697
0.0087940999999999991399
0.0088780000000000004745
0.0087728000000000007363
0.008782899999999999735
0.0088748000000000003967
0.008928500000000000672
0.0089504000000000007164
0.0089653000000000006992
-0.0028440000000000001737
-0.0027680999999999999009
-0.0028314999999999998156
-0.0028367000000000001589
-0.0028083999999999999589
-0.0028091000000000001385
-0.0028424000000000001348
-0.0028465000000000000718
-0.002883300000000000099
-0.0029421000000000000103
-0.0028229999999999999885
0
-0.0027344000000000001117
-0.0028037000000000001157
-0.0027718999999999998848
-0.0027932000000000000231
-0.0028617000000000000076
-0.0029077999999999998813
-0.0028368999999999998385
-0.0028663999999999998508
-0.0029228000000000001375
-0.0030046000000000000658
-0.027248800000000000104
-0.027117300000000000432
-0.027170400000000000801
-0.027148200000000000803
-0.027225699999999998513
-0.027190399999999999986
-0.027268299999999998789
-0.027267599999999999477
-0.027203200000000000297
-0.027287999999999999756
-0.025948200000000001125
0
-0.027208199999999998359
-0.027305499999999999911
-0.027262000000000001509
-0.02727080000000000129
-0.027324600000000000971
-0.027360499999999999404
-0.027342899999999999844
-0.027292699999999999599
-0.027379899999999998683
-0.027388599999999999057
-0.02031989999999999838
-0.020327600000000001224
-0.020351299999999999252
-0.020333600000000000285
-0.020339800000000001629
-0.020281600000000000322
-0.020427199999999999525
-0.020395799999999998653
-0.020383700000000001124
-0.020458400000000001584
-0.019203499999999998349
0
-0.020463300000000000239
-0.020453499999999999459
-0.020430099999999999649
-0.020380300000000000499
-0.020463800000000000739
-0.020476399999999998769
-0.020450300000000001116
-0.020449399999999999522
-0.020489000000000000268
-0.020469399999999998707
-0.013357499999999999582
-0.013390300000000000813
-0.013380799999999999986
-0.013452900000000000275
-0.013470700000000000382
-0.01356219999999999995
-0.013522499999999999798
-0.01358660000000000076
-0.013602299999999999461
-0.013625399999999999318
-0.013909299999999999442
0
-0.01363690000000000041
-0.013673299999999999343
-0.013711599999999999136
-0.013797099999999999642
-0.013811999999999999625
-0.013831599999999999451
-0.013882900000000000101
-0.013898499999999999396
-0.013946800000000000516
-0.013965699999999999295
-0.0038187999999999997988
-0.0037743999999999998038
-0.0038338999999999998948
-0.0037980000000000001606
-0.0038776999999999999837
-0.0037677000000000001288
-0.0040079000000000000042
-0.004026899999999999924
-0.0040226999999999997135
-0.0041013000000000004314
-0.0012807000000000000675
0
-0.004260599999999999804
-0.0042982999999999996904
-0.0043236000000000003596
-0.0042992999999999998231
-0.004592599999999999634
-0.0047907999999999995727
-0.0046893999999999998185
-0.0046474999999999997216
-0.0047543999999999997721
-0.0049148999999999998245
-0.0029711999999999997961
-0.0029147000000000001033
-0.0029279000000000002073
-0.0029656999999999999335
-0.0029734000000000001748
-0.0030029000000000001872
-0.0029329000000000000035
-0.0029675999999999999254
-0.0029992999999999998828
-0.0030287999999999998951
-0.0030438999999999999911
0
-0.0028624000000000001873
-0.0029765999999999998189
-0.0029003000000000001869
-0.0029572000000000001063
-0.0029133000000000001777
-0.0028960999999999999764
-0.0028936999999999999181
-0.0028793999999999998415
-0.0029258999999999999418
-0.0029678999999999998785
0.013814800000000000343
0.013722599999999999729
0.013868099999999999525
0.013727599999999999525
0.013748299999999999757
0.013607400000000000398
0.013683799999999999436
0.013554300000000000029
0.013442199999999999635
0.013521500000000000533
0.012306700000000000278
0
0.013213799999999999504
0.013343799999999999412
0.013327300000000000257
0.013197699999999999709
0.013010199999999999543
0.012915199999999999944
0.012943200000000000191
0.012962200000000000111
0.012917500000000000163
0.012908199999999999882
-0.015157000000000000334
-0.014877800000000000052
-0.014952999999999999278
-0.014793300000000000546
-0.014816199999999999856
-0.01466630000000000017
-0.014862200000000000757
-0.014771299999999999361
-0.014595300000000000287
-0.014544500000000000137
-0.010244700000000000681
0
-0.014139099999999999932
-0.014234200000000000672
-0.014139000000000000526
-0.014019699999999999523
-0.014056199999999999597
-0.014086400000000000657
-0.013936799999999999189
-0.013841499999999999637
-0.013909499999999999989
-0.013850799999999999917
0.016004700000000000176
0.015917699999999999905
0.015808300000000000823
0.015630800000000000249
0.015501799999999999607
0.015543899999999999384
0.015431999999999999537
0.015482499999999999735
0.015304200000000000442
0.015220300000000000842
0.015844299999999998663
0
0.014672700000000000325
0.014743300000000000849
0.014516700000000000437
0.014587499999999999772
0.014730299999999999991
0.014836999999999999494
0.014444099999999999648
0.014406900000000000261
0.014393400000000000638
0.014135599999999999901
0.018577799999999998481
0.018366899999999998505
0.018471399999999998931
0.018525099999999999206
0.0186361999999999986
0.01851569999999999952
0.018498099999999999959
0.018387099999999999972
0.018546699999999999298
0.018416899999999999937
0.016734999999999999876
0
0.018267999999999999516
0.018270999999999999047
0.018302300000000000513
0.01812779999999999947
0.017893300000000000871
0.017702999999999999986
0.01798390000000000058
0.017943299999999998834
0.017906299999999999994
0.018060900000000001259
-0.003745300000000000018
-0.0034347000000000001661
-0.0034908999999999999059
-0.0033357000000000000366
-0.0034597999999999998547
-0.0032301000000000000718
-0.0034101000000000001103
-0.0033625999999999998773
-0.0030920999999999999701
-0.0031101000000000001908
0.0015427999999999999874
0
-0.0030005999999999999686
-0.0032225999999999999437
-0.0031267000000000000522
-0.0030214000000000000405
-0.003212700000000000191
-0.0032769000000000001252
-0.0031140000000000000145
-0.0030536000000000000643
-0.0032255000000000000684
-0.0031605000000000001148
-0.032895699999999999941
-0.032846599999999996633
-0.032817999999999999949
-0.032810100000000001763
-0.032813900000000000012
-0.032870700000000002694
-0.032872300000000000131
-0.032797399999999997389
-0.032669099999999999528
-0.032699600000000002276
-0.033205199999999997218
0
-0.032892999999999998628
-0.032844499999999998696
-0.032854800000000003446
-0.032876200000000001256
-0.032863700000000002632
-0.03287759999999999988
-0.032904099999999998627
-0.032971599999999996744
-0.032986500000000001931
-0.033072799999999999421
-0.02317839999999999831
-0.023233699999999999491
-0.023214200000000000806
-0.023128200000000001535
-0.023137800000000000034
-0.023196899999999999464
-0.0231559999999999995
-0.023110599999999998505
-0.023121900000000000786
-0.023148599999999998345
-0.023541499999999999926
0
-0.023153099999999999375
-0.023145099999999998314
-0.023183499999999999247
-0.02316959999999999853
-0.023122099999999999598
-0.023124999999999999722
-0.023112699999999999911
-0.023022899999999998921
-0.022919399999999999495
-0.02293890000000000165
-0.022916200000000001152
-0.022934800000000001713
-0.022987299999999998706
-0.023075700000000001072
-0.023055499999999999605
-0.023023200000000000609
-0.023064500000000001667
-0.0230453000000000012
-0.02306920000000000151
-0.023051900000000000168
-0.023311700000000001171
0
-0.023070000000000000229
-0.022977000000000000896
-0.022950800000000000367
-0.022964800000000000491
-0.023011299999999998422
-0.023030599999999998295
-0.023030700000000001171
-0.023102600000000000913
-0.023176700000000001467
-0.023143600000000000283
-0.033872600000000002707
-0.033836400000000002586
-0.033878800000000000581
-0.033892999999999999516
-0.03392889999999999795
-0.033938400000000000512
-0.034063000000000002998
-0.034093199999999997118
-0.034108899999999997554
-0.03413440000000000224
-0.033348099999999998577
0
-0.034176299999999999735
-0.034229400000000000104
-0.034247800000000001852
-0.03431100000000000122
-0.034405800000000000272
-0.034464000000000001578
-0.034457599999999997953
-0.034472999999999996701
-0.034526199999999999946
-0.034562400000000000067
-0.033813999999999996837
-0.033756200000000000094
-0.033780100000000000404
-0.033843400000000002648
-0.033899899999999996703
-0.033894100000000003392
-0.033845899999999998209
-0.033936399999999998511
-0.033980499999999996819
-0.033905400000000002203
-0.033059699999999997422
0
-0.034003300000000000192
-0.034044999999999998874
-0.034041099999999997749
-0.033996699999999997754
-0.034026800000000002877
-0.033995200000000003193
-0.033976899999999997382
-0.033933800000000000074
-0.033941699999999998261
-0.033843699999999997396
-0.021712499999999999162
-0.021770500000000001656
-0.021785300000000000498
-0.021870199999999999363
-0.021830499999999999211
-0.021856199999999999239
-0.021848499999999999865
-0.021891100000000000142
-0.02194600000000000023
-0.022001699999999999036
-0.023210899999999999588
0
-0.021926199999999999857
-0.021962499999999999384
-0.021949099999999999167
-0.021993800000000000849
-0.022106000000000000649
-0.022199599999999999889
-0.022167300000000000892
-0.022279899999999998317
-0.022305800000000000627
-0.022286799999999998972
-0.035262500000000002176
-0.035218699999999998618
-0.035279999999999998861
-0.035270500000000003238
-0.035309500000000000608
-0.035246699999999998865
-0.035255899999999999739
-0.035210600000000001619
-0.035175900000000002998
-0.035142399999999997251
-0.033722700000000001286
0
-0.03520530000000000187
-0.035228500000000002867
-0.035226899999999998492
-0.035199599999999997557
-0.035181200000000002748
-0.035141100000000001502
-0.035172799999999997123
-0.035120199999999997253
-0.035124799999999997691
-0.035122199999999999254
-0.0126678999999999993
-0.012781400000000000053
-0.0127527999999999999
-0.012801899999999999738
-0.012766100000000000711
-0.012817500000000000768
-0.012746800000000000838
-0.012757900000000000837
-0.012741600000000000495
-0.012744099999999999526
-0.014289899999999999478
0
-0.012826300000000000548
-0.012812900000000000331
-0.01280060000000000052
-0.012813099999999999143
-0.012763899999999999899
-0.012740700000000000636
-0.012732500000000000762
-0.012815599999999999908
-0.012800499999999999379
-0.01262210000000000068
-0.011159799999999999234
-0.011198599999999999527
-0.011221200000000000618
-0.011147600000000000564
-0.011182599999999999138
-0.011179100000000000842
-0.011263499999999999207
-0.011232199999999999476
-0.01123159999999999957
-0.011295200000000000032
-0.010166599999999999596
0
-0.011271899999999999628
-0.011285500000000000392
-0.011291999999999999954
-0.011246100000000000194
-0.011248599999999999224
-0.011250500000000000084
-0.011263099999999999848
-0.011282000000000000361
-0.011234499999999999695
-0.01119990000000000048
-0.023861400000000001359
-0.023866399999999999421
-0.02387119999999999867
-0.023872000000000000858
-0.023880700000000001232
-0.023892900000000001637
-0.023903000000000000635
-0.023881300000000001138
-0.023836799999999998267
-0.023797100000000001585
-0.022871699999999998282
0
-0.023733299999999998842
-0.0237761000000000014
-0.023765200000000000213
-0.023774300000000001681
-0.023779399999999999149
-0.023785099999999999992
-0.023824200000000000238
-0.023805199999999998584
-0.023810299999999999521
-0.023791500000000000148
-0.021250899999999999651
-0.021184299999999999659
-0.021234200000000001685
-0.021173100000000000254
-0.021172400000000000941
-0.021121999999999998415
-0.021123699999999998728
-0.021147300000000000819
-0.021141599999999999976
-0.021074999999999999983
-0.01972269999999999926
0
-0.021072600000000000359
-0.021002599999999999741
-0.020914200000000000845
-0.020908699999999998814
-0.020972299999999999276
-0.021046499999999999236
-0.02090300000000000144
-0.020802799999999999764
-0.02083559999999999926
-0.020912000000000000033
-0.015108399999999999261
-0.015144799999999999929
-0.015237999999999999809
-0.015300499999999999864
-0.015386499999999999136
-0.015485099999999999906
-0.01546939999999999947
-0.015506600000000000592
-0.015601999999999999549
-0.015610000000000000611
-0.014762000000000000816
0
-0.015768700000000000078
-0.015806500000000001105
-0.015851199999999999318
-0.015907999999999998531
-0.015888900000000000939
-0.015902300000000001157
-0.016008499999999998425
-0.016057100000000001233
-0.016088399999999999229
-0.016065200000000001701
-0.014623699999999999893
-0.014587299999999999225
-0.01455309999999999937
-0.014493799999999999392
-0.014516799999999999843
-0.014503200000000000813
-0.01459610000000000074
-0.014541000000000000106
-0.014537200000000000122
-0.014477800000000000738
-0.014364000000000000032
0
-0.014355500000000000205
-0.014320100000000000537
-0.01432379999999999938
-0.014370900000000000687
-0.014407800000000000121
-0.014473200000000000301
-0.014408000000000000668
-0.014369500000000000328
-0.014397099999999999481
-0.01437019999999999964
0.0005370000000000000424
0.00032309999999999999311
0.00027339999999999997768
-9.2899999999999994843e-05
-0.00016259999999999999497
-0.00042430000000000001352
-0.0001918
-0.00037589999999999997547
-0.000559499999999999993
-0.0004583000000000000268
-0.0022033999999999998899
0
-0.00079980000000000003348
-0.0009453999999999999947
-0.0010514000000000000776
-0.0012148000000000000378
-0.0011579999999999999582
-0.0011865000000000000546
-0.0013952000000000000859
-0.0015126000000000000122
-0.0015816999999999999029
-0.0016149000000000000594
0.028343000000000000138
0.028334299999999999764
0.0284627000000000005
0.028576199999999999518
0.028670399999999998664
0.028886499999999998983
0.028684000000000001163
0.028900499999999999107
0.029021399999999999281
0.029055899999999999089
0.029732200000000000295
0
0.028775599999999998402
0.028974300000000001443
0.0290125999999999995
0.029159500000000001391
0.029203599999999999698
0.029229999999999999039
0.029213900000000000978
0.029392200000000000271
0.02953259999999999913
0.029649800000000000461
-0.016158499999999999253
-0.015965900000000001618
-0.016003799999999998582
-0.015847099999999999381
-0.015889799999999999064
-0.015678999999999998494
-0.015689600000000001462
-0.015535600000000000104
-0.015336199999999999485
-0.015268300000000000274
-0.013411700000000000357
0
-0.015105199999999999183
-0.015211099999999999968
-0.015181300000000000003
-0.015076199999999999671
-0.015002800000000000163
-0.014880700000000000177
-0.014876399999999999693
-0.014820699999999999152
-0.014716299999999999867
-0.014613499999999999754
-0.030639400000000000662
-0.030543899999999998829
-0.030497300000000001491
-0.030439899999999998903
-0.030417099999999998999
-0.030384000000000001285
-0.030373899999999998817
-0.030310699999999999449
-0.030125599999999998907
-0.030128399999999999626
-0.030230199999999998739
0
-0.030209900000000001336
-0.030144100000000000061
-0.030124399999999999095
-0.030091199999999998504
-0.030070500000000000007
-0.030093100000000001099
-0.030028499999999999637
-0.030074500000000000538
-0.030089700000000000474
-0.030116899999999998533
-0.027866399999999999504
-0.027816899999999998572
-0.027786899999999999794
-0.027676400000000000307
-0.027671100000000000557
-0.027601899999999998658
-0.027654499999999998527
-0.027584899999999999004
-0.027504100000000000076
-0.02744589999999999877
-0.027665900000000000214
0
-0.027272199999999999914
-0.027302099999999999286
-0.027269499999999998602
-0.027198900000000001548
-0.027129699999999999649
-0.027096399999999999653
-0.027026299999999999629
-0.026894000000000001238
-0.026804100000000000842
-0.026699299999999998728
-0.012906900000000000664
-0.012889499999999999916
-0.012876200000000000839
-0.012949799999999999159
-0.012980900000000000077
-0.012978099999999999359
-0.012932100000000000192
-0.012984100000000000155
-0.012965600000000000736
-0.012938800000000000301
-0.014456099999999999506
0
-0.012942800000000000832
-0.012920100000000000334
-0.012901199999999999821
-0.012900299999999999961
-0.012962299999999999517
-0.013026499999999999885
-0.013016599999999999698
-0.013105699999999999641
-0.013162999999999999354
-0.013213499999999999551
-0.0053889999999999996932
-0.0052757000000000003545
-0.0052646000000000003557
-0.0053426999999999997062
-0.0053007000000000002032
-0.0052388000000000000539
-0.0052166000000000000564
-0.0052164999999999997829
-0.0051625000000000004219
-0.0050409000000000000682
-0.0055582000000000001197
0
-0.0050308999999999996083
-0.0050381999999999996231
-0.0050672000000000000028
-0.0050654999999999996904
-0.0050506999999999999812
-0.0050070999999999995719
-0.0049899999999999996442
-0.0049537000000000001171
-0.0049722000000000004041
-0.004935400000000000377
-0.013793100000000000846
-0.013794199999999999517
-0.013798400000000000595
-0.013890899999999999428
-0.013896999999999999631
-0.013932200000000000487
-0.013881299999999999195
-0.014022899999999999601
-0.01408039999999999986
-0.014042000000000000662
-0.015405800000000000743
0
-0.014211800000000000127
-0.014268599999999999339
-0.014316399999999999959
-0.014348599999999999549
-0.014356900000000000564
-0.014356000000000000705
-0.014365599999999999203
-0.014400700000000000653
-0.014392999999999999544
-0.014234699999999999437
-0.02309160000000000032
-0.0230437999999999997
-0.023028699999999999171
-0.02304809999999999845
-0.023022199999999999609
-0.023011799999999998922
-0.023030200000000000671
-0.022998000000000001081
-0.022954300000000000398
-0.022921500000000000902
-0.023191699999999999121
0
-0.022876600000000000407
-0.022864300000000000596
-0.02286569999999999922
-0.02284279999999999991
-0.022827099999999999475
-0.022808499999999998914
-0.022817699999999999788
-0.022856999999999998846
-0.022836599999999998567
-0.022797100000000000697
-0.0045272000000000003211
-0.0045146999999999999631
-0.0044216999999999997625
-0.0043991999999999998119
-0.004355300000000000317
-0.0043252999999999998046
-0.004187899999999999609
-0.0041257000000000003739
-0.0040539000000000000382
-0.0040039000000000003407
-0.0030029000000000001872
0
-0.003962399999999999603
-0.0038624000000000002081
-0.0038356000000000002072
-0.0037685999999999999881
-0.003623400000000000145
-0.0034466000000000001843
-0.0035782999999999999703
-0.0034458000000000001649
-0.0033457000000000000628
-0.003388799999999999972
0.052283099999999999019
0.052196300000000001029
0.052225800000000002776
0.052335100000000002451
0.052384899999999998133
0.052395499999999997631
0.052374400000000001509
0.052498499999999996557
0.052498499999999996557
0.052476700000000001123
0.055594400000000002149
0
0.052591699999999998172
0.052649799999999996603
0.052639499999999998792
0.05264080000000000148
0.052802200000000000524
0.052866900000000001392
0.052836099999999996957
0.052844299999999996831
0.052882499999999998952
0.052917800000000000948
0.0046737999999999996562
0.0046210000000000001075
0.004683500000000000163
0.0046887999999999999123
0.0046943999999999996148
0.0047308999999999996888
0.0047143999999999996672
0.0047956999999999999629
0.0047645999999999999117
0.0046782000000000004136
0.0065919999999999997695
0
0.0046985000000000004192
0.0047545000000000000456
0.0047346999999999996728
0.0047431000000000000938
0.0048257999999999998814
0.0048570000000000002061
0.0047888999999999995807
0.0047619000000000003339
0.0048107999999999996252
0.0048717999999999999153
-0.0017011999999999999345
-0.001715500000000000011
-0.0016694999999999999771
-0.0016107999999999999055
-0.0016050999999999999296
-0.0015974999999999999617
-0.0015537999999999999295
-0.0014871999999999999369
-0.0014565999999999999521
-0.0014008000000000000052
-0.0012192999999999999845
0
-0.0013392000000000000258
-0.0011859999999999999883
-0.0011822000000000000043
-0.00119300000000000005
-0.0010882999999999999445
-0.0010434999999999999398
-0.0010718999999999999796
-0.001015700000000000023
-0.000939799999999999967
-0.0009890999999999999185
0.0076768000000000001168
0.0075893999999999996187
0.0076476000000000000575
0.0076362000000000001057
0.0076518999999999996742
0.007618899999999999631
0.0077488000000000001322
0.0077477999999999999994
0.0076830999999999999989
0.0076944999999999999507
0.008041599999999999443
0
0.0076401999999999997693
0.0077534999999999999754
0.0077533000000000002958
0.0077124000000000003316
0.0078352999999999999037
0.0079021999999999998493
0.0077834000000000002142
0.0078300999999999995604
0.0079199000000000005506
0.0078697999999999997123
0.0057774000000000002436
0.0056604999999999997332
0.0057517999999999996213
0.0058269999999999997145
0.0059303000000000003281
0.0058542999999999997818
0.0060334999999999998008
0.0061127000000000004248
0.006082800000000000186
0.00611879999999999976
0.0042855999999999996528
0
0.0062639000000000001969
0.0064196000000000001326
0.0064380000000000001462
0.0064565999999999998393
0.0066275999999999999843
0.0067958999999999996841
0.0067567000000000000323
0.0067856000000000001385
0.0069462999999999998704
0.0070225000000000000963
-0.021628700000000000703
-0.021699300000000001226
-0.021742700000000000221
-0.021749999999999998501
-0.021839000000000000773
-0.021918599999999999889
-0.022082000000000000933
-0.022074400000000000965
-0.022143800000000001676
-0.022163800000000000862
-0.022384399999999998743
0
-0.022382300000000000806
-0.022413300000000000584
-0.022502000000000001168
-0.022582999999999998908
-0.022595000000000000501
-0.022657199999999998868
-0.022791800000000000948
-0.022833800000000001318
-0.022896199999999998498
-0.022936100000000000931
0.013138300000000000325
0.013104799999999999782
0.013221099999999999519
0.013147300000000000653
0.013224100000000000785
0.01322899999999999944
0.013504099999999999784
0.013578599999999999698
0.01356270000000000045
0.013737400000000000305
0.011747900000000000356
0
0.013863099999999999729
0.014049400000000000083
0.014135500000000000495
0.014174100000000000241
0.014300000000000000211
0.014431899999999999243
0.014444399999999999601
0.014532800000000000232
0.014546599999999999808
0.014500300000000000689
0.021725899999999999379
0.021385899999999999355
0.021161599999999999161
0.020891900000000001442
0.020721199999999998648
0.020434999999999998305
0.020237600000000001421
0.020000299999999998635
0.019843500000000000028
0.019665999999999999454
0.018170200000000000934
0
0.018845199999999999452
0.018538499999999999424
0.018347499999999999226
0.018065200000000000008
0.017886499999999999622
0.017650499999999999523
0.017390699999999998521
0.017184700000000000669
0.017043699999999998435
0.016935300000000000353
0.023184099999999999153
0.023268099999999999894
0.023539799999999999613
0.023741000000000001685
0.023982599999999999751
0.024106300000000000644
0.024549600000000001282
0.024675300000000000705
0.025031600000000001072
0.025258699999999998514
0.022761599999999999888
0
0.025883099999999999163
0.02601449999999999943
0.026210399999999998283
0.026359500000000000985
0.026518599999999999811
0.026719400000000000789
0.027012899999999999412
0.027129099999999999743
0.02733469999999999997
0.027688799999999999524
-0.0036927999999999999887
-0.0037326999999999998202
-0.0036186000000000000283
-0.0036365999999999998153
-0.0035896999999999999222
-0.0036101000000000002012
-0.0035214000000000000509
-0.0035038000000000000568
-0.0033492999999999999335
-0.0033830000000000001563
-0.0063172999999999996518
0
-0.0034407000000000000951
-0.0033622000000000000844
-0.0033776999999999999733
-0.0033917999999999999365
-0.0033202999999999999875
-0.0033030999999999997863
-0.00332139999999999996
-0.0034114000000000001961
-0.0033892000000000001986
-0.0033706999999999999115
-0.017681700000000001582
-0.017769599999999999979
-0.017748900000000001481
-0.01771999999999999964
-0.017803400000000000475
-0.017866500000000000437
-0.017961200000000000082
-0.01799270000000000036
-0.018004499999999999671
-0.018156599999999998435
-0.019313799999999999024
0
-0.018220500000000000584
-0.018303699999999999137
-0.018367100000000000787
-0.018401899999999998814
-0.018415899999999998937
-0.018491099999999999898
-0.0185249999999999998
-0.018530000000000001331
-0.018493599999999998929
-0.018486200000000001242
-0.017747399999999999981
-0.017624600000000000682
-0.017613699999999999496
-0.017594399999999999623
-0.017566600000000001658
-0.017433899999999998703
-0.017431800000000000767
-0.017346600000000000213
-0.017219299999999999884
-0.017195599999999998386
-0.017260700000000000348
0
-0.01693160000000000151
-0.016920700000000000324
-0.016860099999999999393
-0.016778000000000001246
-0.016830799999999999927
-0.016850699999999999706
-0.016766900000000001247
-0.016761100000000000998
-0.01680179999999999868
-0.016735099999999999282
0.0094984999999999999987
0.0095414999999999996344
0.0094444000000000003642
0.0093897000000000008235
0.0093410000000000003445
0.0093418000000000007976
0.0092592000000000004162
0.0091561999999999997557
0.0092116000000000003434
0.0092449000000000003396
0.0088958000000000005819
0
0.0091211000000000000409
0.009025200000000000583
0.008992099999999999399
0.0089393000000000007177
0.008810999999999999388
0.0087051000000000003376
0.0087656000000000001277
0.0087173000000000007426
0.0086329000000000006426
0.0086362000000000001265
-0.011202500000000000652
-0.011157800000000000704
-0.011133799999999999253
-0.01110129999999999971
-0.011062100000000000058
-0.011059899999999999246
-0.011019100000000000422
-0.011053199999999999137
-0.011058500000000000621
-0.011058000000000000121
-0.0112461999999999996
0
-0.011108700000000000865
-0.011086399999999999727
-0.011113899999999999474
-0.01107209999999999965
-0.011018099999999999422
-0.010960100000000000398
-0.010934400000000000369
-0.010941499999999999837
-0.010909999999999999559
-0.010814300000000000648
-0.0028089999999999998651
-0.0027801000000000001926
-0.002843299999999999994
-0.0028127000000000000092
-0.0027945000000000001089
-0.0027702999999999998459
-0.0028069000000000001935
-0.0027980000000000001398
-0.0027812000000000001651
-0.0027455000000000001105
-0.0010025999999999999756
0
-0.0026088999999999999344
-0.0026519999999999998436
-0.0026608999999999998973
-0.0026519000000000000038
-0.0026618000000000001902
-0.0026594000000000001319
-0.0026589000000000000655
-0.0026997000000000001899
-0.002731499999999999987
-0.0026895000000000000503
0.047107000000000003037
0.047158400000000003094
0.047140099999999997282
0.047237800000000003398
0.047285699999999999954
0.047272300000000003206
0.047281700000000002893
0.047392400000000001192
0.047466099999999997183
0.047486199999999999244
0.048197900000000001852
0
0.047576699999999999546
0.04764100000000000279
0.047622799999999999854
0.047620400000000000229
0.047670400000000001661
0.047724999999999996592
0.047720199999999997342
0.04778439999999999771
0.047798000000000000209
0.047820200000000000207
0.19121940000000001159
0.19117010000000000947
0.19133479999999999932
0.19145460000000000256
0.19157279999999998754
0.19160610000000000142
0.1917367000000000099
0.191960600000000009
0.19194230000000001013
0.19200069999999999637
0.1966084999999999916
0
0.19216759999999999398
0.19239929999999999533
0.19240979999999999195
0.19251999999999999669
0.19280069999999999153
0.19300490000000000701
0.19287190000000001278
0.19299649999999998751
0.19322819999999998886
0.19330149999999998722
0.21686199999999999921
0.21697569999999999357
0.21700569999999999582
0.21706349999999999256
0.2171590999999999938
0.21720559999999999867
0.21730859999999999066
0.21743809999999999527
0.21745220000000001215
0.21766299999999999537
0.22107779999999999099
0
0.21790170000000000372
0.21804770000000001096
0.2180566999999999922
0.2180944999999999967
0.21824999999999999956
0.21841689999999999716
0.21843399999999998928
0.21865439999999999876
0.21874609999999999888
0.2187696000000000085
0.085737599999999997147
0.085742200000000004523
0.085704100000000005277
0.085819900000000004514
0.085831500000000005013
0.085840799999999994885
0.085960900000000006749
0.085967500000000002247
0.085997299999999998743
0.086199499999999998345
0.085492799999999993799
0
0.086213600000000001344
0.086284500000000000086
0.086275099999999993461
0.086238300000000003842
0.086329100000000005832
0.086360400000000003828
0.086370399999999999952
0.086459199999999999942
0.086507600000000003937
0.086443199999999997818
0.036030699999999998839
0.035948700000000000099
0.035962300000000002598
0.035941899999999998849
0.036004099999999997217
0.035912600000000002853
0.035961899999999998034
0.035944099999999999662
0.035860499999999996545
0.035825099999999998612
0.035076299999999997759
0
0.035818700000000001926
0.035866799999999997295
0.035793699999999997741
0.035753000000000000058
0.035781699999999999617
0.035805200000000002303
0.035774899999999998368
0.035711899999999997812
0.035704100000000002502
0.035692700000000000815
0.013188099999999999476
0.013291499999999999496
0.013329799999999999288
0.013449300000000000838
0.013507699999999999221
0.013530999999999999625
0.013607899999999999163
0.013595700000000000493
0.013720500000000000057
0.013771300000000000208
0.014602099999999999802
0
0.013974999999999999575
0.014007300000000000306
0.014059800000000000769
0.014090899999999999953
0.014069399999999999268
0.014094100000000000031
0.014274900000000000089
0.014364000000000000032
0.014357899999999999829
0.014475500000000000519
0.014344499999999999612
0.014224499999999999297
0.014254400000000000404
0.01416530000000000046
0.014147299999999999806
0.014016699999999999993
0.013978199999999999653
0.013935200000000000017
0.013848799999999999652
0.013835399999999999435
0.012094099999999999989
0
0.013559599999999999778
0.013580000000000000057
0.01350559999999999955
0.013437700000000000339
0.013502300000000000066
0.013500500000000000347
0.013283299999999999622
0.013244399999999999923
0.013253300000000000844
0.013145999999999999699
0.030437399999999999872
0.030448300000000001059
0.030515099999999999864
0.030433100000000001123
0.030483599999999999586
0.030471499999999998587
0.030559099999999998765
0.030601099999999999135
0.030552099999999998703
0.030572499999999998982
0.028553599999999998427
0
0.030765299999999998898
0.030770499999999999241
0.030780399999999999427
0.030803500000000001019
0.03082560000000000161
0.03084800000000000042
0.030911299999999999194
0.030924699999999999411
0.030895399999999999946
0.0308578000000000012
-0.0085056000000000003131
-0.0085100000000000002032
-0.0084287000000000007749
-0.0082935999999999999305
-0.0082237999999999998602
-0.008190799999999999817
-0.0081884999999999995984
-0.0081493999999999993528
-0.0080073000000000001813
-0.0080166999999999998677
-0.010013499999999999832
0
-0.0079085000000000005987
-0.0079472999999999991566
-0.0078940999999999993814
-0.0078375000000000007161
-0.007845100000000000684
-0.0079086000000000000049
-0.0078049000000000000321
-0.0077209000000000001587
-0.0076219000000000000292
-0.0075228999999999998996
-0.0067326000000000000428
-0.0065912999999999995898
-0.0067020999999999998978
-0.0066871999999999999151
-0.0067425999999999996354
-0.0066700999999999999873
-0.0067162000000000002947
-0.0066433000000000004201
-0.0064755999999999997591
-0.0064589000000000000579
-0.0049372000000000000955
0
-0.0065253999999999997769
-0.0065593999999999999528
-0.0065887000000000002856
-0.0065868999999999996997
-0.0065881000000000003794
-0.0065829000000000000362
-0.0065386999999999997207
-0.0065449000000000001967
-0.0065956000000000000738
-0.0064948999999999996319
-0.0063579999999999999363
-0.0061735999999999995741
-0.0062516000000000003858
-0.0062554000000000003698
-0.0062722999999999997506
-0.0061717999999999998556
-0.0062030000000000001803
-0.0061031000000000001915
-0.0058824999999999997083
-0.0057495999999999996763
-0.0041159999999999998671
0
-0.0057891000000000001485
-0.0057623999999999999874
-0.0057337000000000004282
-0.0056921999999999996905
-0.0056746000000000001301
-0.0056979999999999999399
-0.0056820999999999998245
-0.0056277000000000002369
-0.0056166999999999996443
-0.0054866000000000003309
-0.010808500000000000399
-0.010816799999999999679
-0.01083489999999999974
-0.010741399999999999906
-0.010752499999999999905
-0.010752700000000000452
-0.010830799999999999803
-0.010837400000000000505
-0.010790100000000000385
-0.010823700000000000335
-0.011999900000000000844
0
-0.010768800000000000247
-0.010857000000000000331
-0.010868700000000000236
-0.010849900000000000863
-0.010904499999999999263
-0.010990099999999999175
-0.0108807999999999995
-0.010856100000000000472
-0.010841800000000000395
-0.010767999999999999794
0.023958699999999999442
0.024015899999999999748
0.024060299999999999743
0.024006099999999998967
0.024067499999999998617
0.024079599999999999616
0.024155300000000001076
0.024217200000000001225
0.024251600000000001628
0.024339300000000001212
0.022386400000000000743
0
0.024622000000000001524
0.024626100000000001461
0.024679300000000001236
0.024727300000000000668
0.024724300000000001137
0.024748099999999998572
0.02484449999999999853
0.02487920000000000062
0.024866300000000000903
0.024898900000000001587
0.017697000000000000924
0.017531000000000001443
0.017585300000000001625
0.017463300000000001044
0.017502199999999999008
0.017370400000000001117
0.017363300000000001649
0.017387500000000000178
0.01732329999999999981
0.017285399999999999376
0.014661099999999999827
0
0.017030900000000001593
0.017070399999999999463
0.016957300000000001539
0.016875700000000000423
0.01698770000000000141
0.01700859999999999872
0.016771999999999998715
0.016724599999999999189
0.016767000000000000653
0.016627499999999999919
0.0084319000000000008527
0.0085112000000000000155
0.0085330000000000006538
0.0086814000000000005747
0.0087202000000000008673
0.0087416999999999998178
0.0088041999999999998733
0.0087656999999999995338
0.008819099999999999856
0.008847900000000000556
0.0096497000000000006381
0
0.0090015000000000008201
0.0090189999999999992397
0.0090840999999999994668
0.0091176999999999994162
0.0090934999999999991532
0.0091128000000000007608
0.0093106999999999998791
0.0093778000000000003716
0.0093681000000000007322
0.0095048000000000007481
0.040884600000000000108
0.040807999999999997054
0.040821400000000000741
0.040760699999999996934
0.040824100000000002053
0.040702900000000000191
0.040791599999999997306
0.040756399999999998185
0.040674099999999997757
0.040672199999999998632
0.039449499999999998456
0
0.040641099999999999448
0.040717900000000001315
0.040646000000000001573
0.040595499999999999641
0.040634900000000001574
0.040662200000000002509
0.040614400000000001889
0.040571900000000001019
0.040569800000000003082
0.040539800000000000835
0.073578400000000002135
0.073612600000000000255
0.073600499999999999257
0.073736700000000002242
0.073780100000000001237
0.073805999999999996608
0.073978699999999994463
0.074018700000000006711
0.074075000000000001954
0.074337000000000000299
0.073468300000000000272
0
0.074388399999999993417
0.074515200000000003655
0.07452110000000000678
0.07451180000000000303
0.074648599999999995513
0.074730500000000005256
0.074752299999999993751
0.074883000000000005114
0.074968800000000002104
0.074909600000000006736
0.12120580000000000243
0.1212412999999999963
0.12122349999999999792
0.12124909999999999854
0.12130240000000000467
0.12132320000000000604
0.12136299999999999866
0.12143869999999999665
0.12139490000000000003
0.12153310000000000501
0.1243626000000000037
0
0.12166390000000000537
0.12173390000000000599
0.12171750000000000624
0.12170699999999999574
0.12179500000000000048
0.12188350000000000573
0.12189450000000000285
0.12201439999999999508
0.12205480000000000496
0.12206110000000000571
0.21001690000000000635
0.20994789999999999286
0.21012980000000000547
0.21025640000000000995
0.21038989999999999081
0.21042009999999999881
0.21056059999999998666
0.21082500000000001239
0.21080389999999998851
0.21083460000000001089
0.2156008000000000091
0
0.21096280000000000587
0.21127299999999998859
0.21125559999999998784
0.2113636999999999877
0.21170600000000000529
0.21193429999999999214
0.21176459999999999728
0.2118779000000000079
0.21215100000000000624
0.21222409999999999886
0.042178100000000003089
0.042222700000000001896
0.042177699999999998526
0.042246400000000003394
0.042283300000000002827
0.042254500000000000393
0.04225860000000000033
0.042350800000000000944
0.042401599999999997626
0.042421199999999999186
0.043235599999999999032
0
0.04247719999999999968
0.042527900000000000424
0.042509999999999999176
0.042499900000000000178
0.042547799999999996734
0.042597000000000002917
0.04256700000000000067
0.042625000000000003164
0.042621800000000001352
0.042626799999999999413
-0.007647199999999999831
-0.0076138000000000004286
-0.0076632000000000002199
-0.0076312000000000003094
-0.0076096000000000002181
-0.0076004000000000002113
-0.0076248000000000001539
-0.0076163999999999997328
-0.007605200000000000328
-0.0075722000000000002848
-0.0059832000000000001502
0
-0.0074824999999999995681
-0.0075177999999999998298
-0.0075265000000000002039
-0.0075209999999999999076
-0.0075297000000000002817
-0.0075094000000000002762
-0.0074990999999999998632
-0.0075345000000000003984
-0.0075494999999999997872
-0.0075154999999999996113
-0.010742099999999999219
-0.010710100000000000176
-0.010685399999999999412
-0.010694099999999999787
-0.010640200000000000699
-0.010644499999999999448
-0.010594599999999999157
-0.010595500000000000751
-0.010559000000000000677
-0.010533700000000000008
-0.011151200000000000001
0
-0.010572200000000000347
-0.010528700000000000211
-0.01056370000000000052
-0.010535199999999999773
-0.010465699999999999656
-0.010420099999999999849
-0.010415000000000000646
-0.010429100000000000176
-0.010387699999999999712
-0.010295699999999999644
0.0016035999999999999473
0.0016328000000000000066
0.0014954000000000000278
0.0014665999999999999783
0.0013910000000000000923
0.0013717000000000000026
0.0012489000000000000535
0.0011165999999999999277
0.001118999999999999986
0.0011341999999999999218
0.0010426000000000000805
0
0.00096809999999999995016
0.00085329999999999997864
0.00079940000000000002375
0.00074609999999999997503
0.00061280000000000004173
0.00051309999999999994936
0.00053439999999999997921
0.00045750000000000000736
0.00035110000000000002318
0.00038769999999999999124
-0.012059300000000000228
-0.011938000000000000694
-0.011906899999999999776
-0.011911899999999999572
-0.011870399999999999702
-0.011735199999999999451
-0.011659700000000000272
-0.01159169999999999992
-0.011528899999999999912
-0.011445099999999999718
-0.01167220000000000063
0
-0.011176200000000000717
-0.011131699999999999581
-0.011050799999999999512
-0.010958000000000000726
-0.010971800000000000302
-0.010967499999999999818
-0.010861900000000000721
-0.01083010000000000049
-0.010851599999999999441
-0.010825599999999999459
-0.023359200000000000103
-0.023409099999999998659
-0.023393899999999998723
-0.023346200000000000979
-0.023385400000000000631
-0.023438699999999999812
-0.0235491999999999993
-0.023564100000000001017
-0.023500599999999999962
-0.023648399999999999976
-0.024887099999999998806
0
-0.023820999999999998425
-0.023903699999999999948
-0.023955400000000001692
-0.023995800000000001156
-0.024012100000000001498
-0.024108100000000000362
-0.024154800000000000576
-0.024149400000000001421
-0.024110900000000001081
-0.024085800000000000959
-0.0035867999999999997975
-0.0036673000000000000737
-0.0035820999999999999543
-0.0035723000000000000413
-0.0035936000000000001796
-0.0035990000000000002024
-0.0035190999999999998324
-0.0035222000000000000704
-0.003421200000000000109
-0.0035848999999999998055
-0.0066521999999999996064
0
-0.0037069999999999997918
-0.0036721000000000001903
-0.0037242999999999998328
-0.0037393999999999999288
-0.0036840000000000002085
-0.003646700000000000115
-0.0036543000000000000829
-0.0037899000000000001263
-0.003787500000000000068
-0.0037994000000000000862
-6.6799999999999997401e-05
-2.6999999999999999837e-06
0.00023800000000000001168
0.00034410000000000001566
0.00053050000000000004704
0.00060829999999999998656
0.00090649999999999997073
0.00097889999999999999583
0.0012454000000000000226
0.0014299000000000000078
-0.00094129999999999994925
0
0.0018779999999999998951
0.002022599999999999832
0.0021529999999999999659
0.0022758000000000001319
0.0023925000000000000953
0.0025265999999999999397
0.0027027000000000001544
0.0028191000000000001648
0.002984099999999999947
0.003219399999999999866
0.039481799999999997453
0.039173600000000002863
0.039044099999999998252
0.038796400000000001718
0.038692100000000000104
0.038379599999999999826
0.038350099999999998079
0.038087099999999998734
0.037956900000000001749
0.037867900000000002947
0.035893099999999997229
0
0.037335000000000000131
0.037052500000000002101
0.036937200000000003364
0.036634300000000001585
0.036458600000000000729
0.036251600000000001878
0.036122799999999996579
0.035923400000000001164
0.035779600000000001681
0.035784099999999999242
0.0019610999999999999092
0.0019453999999999999071
0.0020436000000000000172
0.0020032000000000001194
0.0020823999999999998761
0.0021445000000000001388
0.0023189000000000000411
0.002441700000000000207
0.0025130000000000000428
0.0026584999999999998389
0.0013083000000000000879
0
0.0029223000000000000712
0.0031086999999999998315
0.003197600000000000095
0.0032834000000000001206
0.0033852000000000001013
0.0035108000000000001185
0.0035404999999999998105
0.0036283000000000001015
0.0036800000000000001113
0.0037109000000000000492
-0.011568999999999999423
-0.011682299999999999629
-0.011759300000000000308
-0.011820900000000000504
-0.011940299999999999178
-0.012046700000000000463
-0.012175999999999999324
-0.012180200000000000402
-0.012249799999999999925
-0.012286699999999999358
-0.01257469999999999942
0
-0.012644400000000000084
-0.012722400000000000028
-0.012856199999999999919
-0.012980000000000000218
-0.012999999999999999403
-0.013065300000000000177
-0.013259299999999999906
-0.01332320000000000032
-0.013424200000000000715
-0.013542999999999999483
-0.0050594999999999997614
-0.0051282000000000002929
-0.0050105000000000001967
-0.0049522000000000003517
-0.004860599999999999643
-0.0049132999999999997856
-0.0047493999999999999759
-0.0046946999999999995679
-0.0047673000000000003568
-0.0047323000000000000481
-0.0062894999999999999518
0
-0.0045677000000000000587
-0.0044326000000000000817
-0.0044067999999999997798
-0.0043905999999999997113
-0.004228400000000000214
-0.0040661999999999998492
-0.0040695000000000002005
-0.0040000000000000000833
-0.0038538999999999999473
-0.0037777999999999999949
0.0041177999999999995856
0.0040409000000000000474
0.0041111999999999997504
0.0041446000000000000202
0.0041583999999999995967
0.0041510999999999995819
0.0042528000000000001565
0.0042865999999999997855
0.0042414999999999996108
0.0042484000000000002664
0.0046882000000000000062
0
0.0042928999999999996676
0.0044292000000000003243
0.0044466999999999996113
0.0044402000000000000496
0.004594499999999999626
0.0046788000000000003198
0.0045295999999999999458
0.0045910999999999998686
0.0047029000000000003093
0.0046490000000000003544
-0.012207799999999999555
-0.012243699999999999722
-0.0122191000000000001
-0.012199899999999999634
-0.012206800000000000289
-0.012216899999999999288
-0.012211100000000000773
-0.012160600000000000576
-0.012144000000000000281
-0.01212979999999999961
-0.011627800000000000635
0
-0.012131700000000000469
-0.01203760000000000073
-0.012051499999999999713
-0.012071899999999999992
-0.012022100000000000841
-0.01201810000000000031
-0.012052900000000000072
-0.012035300000000000512
-0.011994499999999999953
-0.012030000000000000762
0.0029393999999999999989
0.0028733000000000000727
0.0029383000000000000264
0.0029646999999999998007
0.0029623000000000001761
0.0029837000000000001541
0.002987200000000000185
0.0030630000000000001843
0.0030322000000000000862
0.0029513999999999998569
0.0046055999999999996247
0
0.0029586999999999998717
0.0030273999999999999695
0.0030189000000000001424
0.0030311999999999999535
0.0031305000000000000361
0.003167399999999999903
0.0030807000000000000182
0.0030826000000000000102
0.0031548999999999999787
0.0031821000000000002061
0.035323100000000003107
0.035263500000000003176
0.035305299999999997795
0.035411699999999997346
0.035462000000000000466
0.035501400000000002399
0.035460100000000001341
0.035588599999999998014
0.035623000000000001886
0.035584100000000000452
0.038199799999999999034
0
0.035717800000000000937
0.035771799999999999431
0.035774100000000003119
0.035788300000000002055
0.035922700000000001852
0.035978799999999998283
0.035955899999999998973
0.035936999999999996724
0.035966600000000001347
0.036060599999999998211
0.0035828999999999999737
0.0035690000000000001237
0.0036757999999999999008
0.0037115999999999997952
0.0037583000000000000088
0.0037866000000000002088
0.0039357999999999997154
0.0040260000000000000647
0.0040740000000000003641
0.0041105999999999998443
0.0052766000000000002138
0
0.0041796999999999997349
0.0043023999999999996274
0.0043366999999999997564
0.004415299999999999607
0.0046131999999999995926
0.0048199000000000002258
0.0046531999999999996975
0.0048065000000000000085
0.0049359000000000000097
0.0048751999999999996727
-0.026125800000000001105
-0.026072499999999998455
-0.026047899999999998832
-0.026068399999999998518
-0.026040000000000000646
-0.02602480000000000071
-0.026035400000000000209
-0.02602430000000000021
-0.025985999999999998683
-0.025945699999999998625
-0.026013100000000000805
0
-0.02591589999999999866
-0.025923100000000001003
-0.025926500000000001628
-0.025912799999999999723
-0.02591890000000000166
-0.025892700000000001131
-0.025889800000000001007
-0.025915799999999999254
-0.025910699999999998316
-0.0258876999999999996
-0.018060099999999999071
-0.018044199999999999823
-0.018051799999999999791
-0.01813709999999999975
-0.01815620000000000081
-0.018184100000000001651
-0.018146300000000000624
-0.018261300000000001142
-0.018248000000000000331
-0.018196699999999999681
-0.019241500000000001658
0
-0.018336999999999999134
-0.018392200000000000909
-0.018428599999999999842
-0.018456699999999999495
-0.018471299999999999525
-0.018476599999999999274
-0.018491699999999999804
-0.018519000000000000739
-0.018512799999999999395
-0.018367800000000000099
-0.0041197999999999998511
-0.0040581999999999996548
-0.004054999999999999577
-0.0041352999999999997399
-0.0040959000000000004085
-0.0040568000000000001629
-0.0040674999999999999351
-0.0040711999999999996455
-0.0040727000000000002783
-0.0039557999999999997678
-0.0047442999999999999061
0
-0.0039718000000000001568
-0.0039731999999999996487
-0.0040030999999999998876
-0.0039988000000000002709
-0.0039718000000000001568
-0.0039303000000000002864
-0.0039432000000000000037
-0.0039515000000000001512
-0.0039519000000000003778
-0.0038424000000000001556
-0.014601899999999999255
-0.014520200000000000468
-0.014496699999999999517
-0.014563299999999999509
-0.014613900000000000848
-0.014579999999999999211
-0.014513099999999999265
-0.0145687000000000004
-0.014585900000000000601
-0.014558599999999999666
-0.015360399999999999748
0
-0.014535899999999999169
-0.014510999999999999593
-0.014467499999999999458
-0.01445109999999999971
-0.014513299999999999812
-0.01456730000000000004
-0.014536300000000000263
-0.014564199999999999369
-0.014647099999999999703
-0.014730099999999999444
-0.020722700000000000148
-0.020661999999999999811
-0.020541600000000000137
-0.02040290000000000159
-0.020332099999999998785
-0.020259200000000001513
-0.020258700000000001012
-0.02016039999999999846
-0.020028799999999999382
-0.020017299999999998289
-0.021067300000000000609
0
-0.019921899999999999331
-0.019888400000000000523
-0.01983640000000000056
-0.019753099999999999131
-0.019630999999999999145
-0.019578999999999999182
-0.019539100000000000218
-0.019396799999999998765
-0.019247699999999999532
-0.019150099999999999761
-0.030346200000000000258
-0.030318399999999998823
-0.030318999999999998729
-0.030286600000000000327
-0.030321199999999999541
-0.030284900000000000014
-0.030273800000000000016
-0.030244799999999998769
-0.030103499999999998316
-0.030176499999999998464
-0.030735599999999998339
0
-0.030392200000000001159
-0.030401700000000000251
-0.03042639999999999928
-0.030449600000000000277
-0.030437300000000000466
-0.030428099999999999592
-0.030384600000000001191
-0.03046890000000000015
-0.030506100000000001271
-0.030542500000000000204
-0.015082599999999999826
-0.014879699999999999177
-0.014968000000000000402
-0.014920700000000000282
-0.014991400000000000212
-0.014868199999999999819
-0.014995400000000000743
-0.014941599999999999326
-0.014776799999999999657
-0.014727999999999999772
-0.011766000000000000417
0
-0.014739000000000000365
-0.014904300000000000534
-0.014911300000000000596
-0.014874500000000000569
-0.014870400000000000632
-0.014844500000000000056
-0.014935199999999999171
-0.014905699999999999159
-0.014902300000000000268
-0.014880300000000000818
0.027133799999999999586
0.027216600000000000514
0.027317000000000001003
0.02754550000000000054
0.027655200000000001309
0.027968199999999998617
0.027791199999999998543
0.028160700000000000315
0.028271299999999999208
0.028362700000000001105
0.028993299999999999628
0
0.028309299999999999048
0.028554500000000000021
0.028611600000000000921
0.028899199999999999888
0.029086299999999998961
0.029273400000000001503
0.029239700000000000413
0.029451200000000000295
0.029711999999999998828
0.029826399999999999441
0.0085243000000000002797
0.0082027000000000002689
0.0081793999999999998651
0.0077323000000000001106
0.007679599999999999968
0.0073324000000000002022
0.0075887999999999997125
0.0073146000000000000948
0.0071739000000000004154
0.0073397000000000002171
0.0048599999999999997369
0
0.006990599999999999592
0.0068596999999999998254
0.0067483999999999998848
0.0064812000000000003289
0.0064269000000000001474
0.0063197000000000001438
0.0061431999999999997025
0.0059823999999999996971
0.0058776999999999995916
0.0058980999999999998706
-0.017193099999999999355
-0.017109400000000000303
-0.017111600000000001115
-0.017063200000000000589
-0.017106400000000000772
-0.017031000000000000999
-0.017202200000000000824
-0.017074700000000001682
-0.017028899999999999593
-0.016990800000000000347
-0.015861199999999998911
0
-0.016958000000000000851
-0.016916600000000000387
-0.016945399999999999352
-0.01695400000000000032
-0.016986100000000000504
-0.017031000000000000999
-0.017025599999999998374
-0.016926900000000001667
-0.016956300000000000539
-0.016970200000000001256
-0.0076049000000000003749
-0.0076384000000000000508
-0.0077041999999999995902
-0.0077546999999999997877
-0.007837200000000000763
-0.0079457999999999993912
-0.0078825000000000006173
-0.0079623000000000002802
-0.0081156999999999999973
-0.0081402999999999996195
-0.0080126999999999993368
0
-0.0082571999999999992625
-0.0083170999999999991464
-0.0083590999999999995168
-0.0084299000000000005872
-0.0084013999999999998403
-0.0084142000000000001514
-0.0084708000000000005514
-0.0085488000000000004958
-0.008585699999999999929
-0.0085518999999999994327
-0.024503899999999998599
-0.024421200000000000546
-0.024500799999999999662
-0.024439300000000000607
-0.024448000000000000981
-0.024385799999999999144
-0.02444349999999999995
-0.024457199999999998385
-0.024434500000000001357
-0.024360099999999999115
-0.022841400000000001286
0
-0.024371600000000000208
-0.024303499999999998715
-0.024217499999999999444
-0.024203200000000001102
-0.024286700000000001343
-0.024390900000000000081
-0.024237999999999999129
-0.024142400000000001359
-0.024203399999999999914
-0.024251499999999998752
-0.024094199999999999645
-0.024122100000000000486
-0.024131900000000001266
-0.024148499999999999827
-0.024173799999999998761
-0.024204099999999999226
-0.02417609999999999898
-0.024178899999999999698
-0.024152500000000000357
-0.024131900000000001266
-0.022720699999999999924
0
-0.024108399999999998581
-0.024187600000000000072
-0.024182700000000001417
-0.02420450000000000032
-0.02422639999999999863
-0.024240199999999999941
-0.024307499999999999246
-0.024288199999999999373
-0.024296499999999998654
-0.024325300000000001088
-0.010945599999999999774
-0.010965799999999999506
-0.010984400000000000067
-0.010915199999999999902
-0.010930900000000000338
-0.010927600000000000854
-0.011007499999999999923
-0.010965000000000000788
-0.010959800000000000444
-0.010997599999999999737
-0.0098800999999999992995
0
-0.010977400000000000005
-0.010950500000000000164
-0.010961000000000000257
-0.010920900000000000746
-0.010905299999999999716
-0.010878300000000000469
-0.010892699999999999952
-0.010900699999999999279
-0.010847199999999999551
-0.010807999999999999899
-0.011970800000000000191
-0.012091799999999999771
-0.01207030000000000082
-0.012106300000000000394
-0.01206929999999999982
-0.012113099999999999909
-0.012059500000000000774
-0.012080399999999999819
-0.012068399999999999961
-0.012085600000000000162
-0.013641900000000000207
0
-0.012127199999999999439
-0.012135999999999999219
-0.012114800000000000221
-0.012122700000000000142
-0.012092999999999999583
-0.012086200000000000068
-0.012048899999999999541
-0.012145100000000000687
-0.012128999999999999157
-0.011961899999999999269
-0.032292599999999997695
-0.032263899999999998136
-0.032335400000000000253
-0.032335099999999998566
-0.032372600000000001375
-0.032319100000000003381
-0.032327700000000000879
-0.032271800000000003261
-0.032243599999999997263
-0.032190299999999998082
-0.031120899999999999952
0
-0.032266000000000003012
-0.032279200000000000947
-0.032271899999999999198
-0.032243599999999997263
-0.032206300000000000205
-0.032158300000000000773
-0.032223200000000000454
-0.032177100000000000146
-0.032181399999999998895
-0.032171400000000002772
-0.022027100000000000846
-0.022061299999999998966
-0.022113600000000000617
-0.022181900000000000922
-0.022158400000000001706
-0.02216560000000000058
-0.022195699999999998764
-0.022256200000000000289
-0.022314199999999999313
-0.0223812000000000004
-0.023085899999999999477
0
-0.022340499999999999248
-0.022417099999999998833
-0.022405200000000000116
-0.022452599999999999641
-0.022601400000000000656
-0.022727899999999998798
-0.022632599999999999246
-0.022731600000000001111
-0.022780100000000001043
-0.022741500000000001297
-0.029416999999999998705
-0.029374500000000001304
-0.029394500000000000489
-0.029457400000000001639
-0.029501800000000001634
-0.029505400000000001071
-0.029457500000000001045
-0.029523299999999998849
-0.029522599999999999537
-0.029443199999999999233
-0.029058600000000000402
0
-0.029495400000000001478
-0.029520100000000000506
-0.029514999999999999569
-0.029477799999999998448
-0.029521800000000000819
-0.029511599999999998944
-0.029500499999999998946
-0.02948780000000000151
-0.02950289999999999857
-0.029432900000000001423
-0.035038300000000001388
-0.035002699999999997704
-0.035052500000000000324
-0.035063299999999998635
-0.035114399999999997004
-0.035126299999999999191
-0.035240399999999998115
-0.035292400000000001548
-0.035337800000000002543
-0.035344199999999999229
-0.03421919999999999823
0
-0.035423499999999996657
-0.035488199999999997525
-0.035492999999999996774
-0.035541700000000002457
-0.035637500000000002509
-0.035681799999999999629
-0.035683800000000001629
-0.035696699999999997877
-0.035731100000000001748
-0.035701900000000001689
-0.024289999999999999092
-0.02430840000000000084
-0.024363699999999998552
-0.024435599999999998294
-0.024431200000000000139
-0.024384400000000000519
-0.024416699999999999515
-0.024401499999999999579
-0.024470800000000000884
-0.024461299999999998322
-0.024297200000000001435
0
-0.024455000000000001042
-0.024358199999999999991
-0.0243244999999999989
-0.024319799999999999057
-0.024355899999999999772
-0.024392400000000001581
-0.024382799999999999613
-0.024430500000000000826
-0.024511200000000000349
-0.024538299999999999002
-0.021055600000000000704
-0.02105069999999999858
-0.02102829999999999977
-0.020962000000000001465
-0.020949700000000001654
-0.021016599999999999865
-0.020985400000000001275
-0.020970599999999998964
-0.020926299999999998375
-0.02096639999999999962
-0.021767800000000000343
0
-0.021108399999999999386
-0.02111659999999999926
-0.021118899999999999478
-0.021129300000000000165
-0.021119099999999998291
-0.021149700000000000444
-0.021111399999999998917
-0.021039700000000001456
-0.020941799999999999998
-0.020930000000000000687
-0.032734600000000002584
-0.032725100000000000022
-0.032697600000000000275
-0.03267810000000000159
-0.032687399999999998401
-0.032686699999999999089
-0.032605000000000002036
-0.032519199999999998107
-0.032378799999999999248
-0.032424500000000001931
-0.032914300000000000501
0
-0.032654500000000002968
-0.032620400000000000784
-0.032640900000000000469
-0.032633900000000000408
-0.032579999999999997851
-0.032522000000000002295
-0.032501299999999996859
-0.032549200000000000355
-0.032522599999999998732
-0.032598799999999997223
-0.0015725999999999999528
-0.0014981000000000000393
-0.0014958000000000000376
-0.0015529000000000000702
-0.0016146999999999999461
-0.0015944999999999999972
-0.0018015999999999999896
-0.0018175000000000001051
-0.0017377000000000000085
-0.0017978000000000000057
-2.7299999999999999506e-05
0
-0.0021074000000000001585
-0.0021925999999999998442
-0.0022097000000000002057
-0.0022133000000000000763
-0.0023372000000000002148
-0.0024344000000000001922
-0.0024938000000000000098
-0.0025184000000000000656
-0.0026204000000000001597
-0.0027128000000000000204
0.011558099999999999971
0.011522199999999999803
0.011609899999999999387
0.01176139999999999998
0.011856600000000000125
0.011909599999999999353
0.011773099999999999885
0.011698000000000000065
0.011886900000000000591
0.011866899999999999671
0.011962800000000000863
0
0.011850100000000000564
0.011845200000000000173
0.011889600000000000168
0.011809899999999999912
0.011409499999999999503
0.011169699999999999421
0.01160240000000000056
0.011663500000000000256
0.011544600000000000348
0.011770299999999999166
0.026533299999999999247
0.026436500000000001664
0.026310299999999998272
0.026166399999999999382
0.026111700000000001576
0.026115200000000001607
0.026130000000000000449
0.026185500000000000442
0.02611689999999999845
0.026086100000000000954
0.025187000000000001054
0
0.025913399999999999629
0.025947600000000001219
0.025780399999999998456
0.025881600000000001133
0.026128300000000000136
0.026297199999999999742
0.026028800000000001241
0.025899800000000000599
0.025958700000000001218
0.025815299999999999359
-0.020881099999999999661
-0.020705899999999999306
-0.020755400000000000238
-0.020684700000000000308
-0.020743199999999999833
-0.020660600000000001186
-0.020886999999999999317
-0.020822500000000000731
-0.020699900000000000244
-0.020728699999999999209
-0.016678899999999999976
0
-0.020527000000000000107
-0.020635199999999999376
-0.020599800000000001443
-0.020560200000000000697
-0.020649399999999998312
-0.020735799999999998677
-0.020700199999999998463
-0.020617400000000001004
-0.020702100000000001057
-0.020709200000000000524
0.015384000000000000105
0.015366599999999999357
0.015526999999999999136
0.015462699999999999362
0.015516600000000000184
0.015486800000000000219
0.015542200000000000806
0.015461900000000000643
0.01538059999999999948
0.015480799999999999422
0.013928799999999999862
0
0.015219699999999999201
0.015411299999999999305
0.015410599999999999993
0.015361700000000000702
0.015193899999999999767
0.015143099999999999616
0.015236400000000000637
0.015308300000000000379
0.015297899999999999693
0.015312799999999999676
-0.0042531000000000001096
-0.0042482999999999999929
-0.0042556000000000000077
-0.0043626000000000003318
-0.0043788000000000004003
-0.004490199999999999747
-0.0044067000000000003737
-0.0044958000000000003168
-0.0045751999999999997532
-0.0045815999999999999087
-0.0052919999999999998291
0
-0.0045088999999999997137
-0.0046185999999999996155
-0.0045734000000000000347
-0.0046823000000000003507
-0.0046483999999999995809
-0.0046518999999999996117
-0.0046852999999999998815
-0.0047025000000000000827
-0.0047682999999999996221
-0.004804400000000000337
0.0028081999999999998456
0.0028914000000000001332
0.0028132999999999999154
0.0028987999999999999878
0.0028424999999999999746
0.0030151000000000001584
0.0027732999999999998104
0.0028184999999999998249
0.0028486000000000001771
0.0027842000000000001296
0.0058712000000000000299
0
0.0026687999999999998182
0.002651800000000000164
0.0026394000000000000794
0.0027184000000000001565
0.0024757999999999997891
0.0023123000000000002059
0.0024279000000000001969
0.0025067000000000001607
0.0024272000000000000172
0.0022342999999999998278
-0.010008599999999999441
-0.010050299999999999859
-0.010027499999999999955
-0.010150400000000000394
-0.010169400000000000314
-0.010330499999999999405
-0.010242400000000000462
-0.010374299999999999494
-0.010400400000000000617
-0.01039969999999999957
-0.010923499999999999183
0
-0.010442800000000000346
-0.01051290000000000037
-0.010542499999999999788
-0.01069490000000000024
-0.010756800000000000389
-0.010802400000000000196
-0.010848500000000000504
-0.010872299999999999673
-0.01095199999999999993
-0.010942199999999999149
-0.017240599999999998287
-0.017231599999999999695
-0.017277299999999998908
-0.017247300000000000131
-0.01726820000000000091
-0.017194899999999999074
-0.01734870000000000162
-0.017323399999999999216
-0.017311099999999999405
-0.017409299999999999081
-0.015744500000000001549
0
-0.017380799999999998334
-0.017395700000000000052
-0.017385999999999998678
-0.017322600000000000497
-0.017440299999999998859
-0.017489199999999999885
-0.017423399999999998611
-0.017432400000000000673
-0.017496799999999999853
-0.017494400000000000228
-0.025881600000000001133
-0.025804500000000001048
-0.025824400000000000827
-0.025837999999999999856
-0.025905399999999998567
-0.025928199999999998471
-0.025992899999999999339
-0.026020200000000000273
-0.025980199999999998434
-0.026073200000000001236
-0.025316299999999999915
0
-0.026012400000000001493
-0.02607260000000000133
-0.026027899999999999647
-0.026070200000000001705
-0.026101499999999999702
-0.026125800000000001105
-0.026132099999999998385
-0.026088000000000000078
-0.026158000000000000695
-0.026179500000000001381
-0.012755100000000000118
-0.012650200000000000333
-0.012707299999999999499
-0.012709299999999999764
-0.012684799999999999548
-0.012659300000000000067
-0.012701999999999999749
-0.012710000000000000811
-0.012731499999999999762
-0.012764499999999999805
-0.012170500000000000762
0
-0.012604199999999999432
-0.012682300000000000517
-0.012656799999999999301
-0.012680800000000000752
-0.012766599999999999476
-0.012800199999999999426
-0.012725900000000000059
-0.012728500000000000231
-0.012821300000000000752
-0.012869000000000000231
0.010218700000000000699
0.010328000000000000375
0.010381800000000000056
0.010483100000000000404
0.010441999999999999893
0.010554199999999999693
0.010507199999999999526
0.010510399999999999604
0.01048950000000000056
0.010427799999999999223
0.012404899999999999954
0
0.01051780000000000076
0.010538999999999999757
0.01057830000000000055
0.0107119999999999993
0.010632199999999999637
0.010655500000000000041
0.010729900000000000548
0.010812799999999999148
0.010863599999999999299
0.010828100000000000225
-0.0012490999999999999499
-0.0013546000000000000749
-0.0012984999999999999581
-0.0012525999999999999808
-0.0012423000000000000015
-0.0013190999999999999167
-0.0012780999999999998959
-0.0012119999999999999697
-0.0012464999999999999952
-0.0014067000000000000944
-0.0017501000000000000931
0
-0.0012547000000000000861
-0.0012630000000000000168
-0.0012861999999999999302
-0.0013166000000000000186
-0.0012029000000000000196
-0.0011360999999999999138
-0.001238699999999999914
-0.0013172999999999999814
-0.0012784999999999999056
-0.0013068000000000001056
-0.027659400000000000652
-0.027635500000000000342
-0.027660899999999998683
-0.027686700000000001587
-0.027725900000000001239
-0.027657600000000000934
-0.027822199999999998321
-0.027799500000000001293
-0.027869800000000000129
-0.027952899999999999275
-0.026179500000000001381
0
-0.027838200000000000445
-0.027800700000000001105
-0.027735400000000000331
-0.027722199999999998926
-0.027791300000000001419
-0.027836799999999998351
-0.027829599999999999477
-0.027811800000000001104
-0.027885099999999999471
-0.027922200000000001185
-0.011841799999999999549
-0.011848600000000000798
-0.011772100000000000619
-0.011755899999999999683
-0.011690799999999999456
-0.011787199999999999414
-0.01171020000000000047
-0.011677699999999999192
-0.01161560000000000023
-0.011647199999999999914
-0.013608000000000000304
0
-0.011741400000000000794
-0.011699299999999999283
-0.011721699999999999828
-0.011754300000000000512
-0.011649899999999999492
-0.01158870000000000039
-0.011561999999999999361
-0.011475400000000000184
-0.011400199999999999223
-0.011450200000000000655
